tree
version=v3
num_class=4
num_tree_per_iteration=4
label_index=0
max_feature_idx=390
objective=multiclass num_class:4
feature_names=Column_0 Column_1 Column_2 Column_3 Column_4 Column_5 Column_6 Column_7 Column_8 Column_9 Column_10 Column_11 Column_12 Column_13 Column_14 Column_15 Column_16 Column_17 Column_18 Column_19 Column_20 Column_21 Column_22 Column_23 Column_24 Column_25 Column_26 Column_27 Column_28 Column_29 Column_30 Column_31 Column_32 Column_33 Column_34 Column_35 Column_36 Column_37 Column_38 Column_39 Column_40 Column_41 Column_42 Column_43 Column_44 Column_45 Column_46 Column_47 Column_48 Column_49 Column_50 Column_51 Column_52 Column_53 Column_54 Column_55 Column_56 Column_57 Column_58 Column_59 Column_60 Column_61 Column_62 Column_63 Column_64 Column_65 Column_66 Column_67 Column_68 Column_69 Column_70 Column_71 Column_72 Column_73 Column_74 Column_75 Column_76 Column_77 Column_78 Column_79 Column_80 Column_81 Column_82 Column_83 Column_84 Column_85 Column_86 Column_87 Column_88 Column_89 Column_90 Column_91 Column_92 Column_93 Column_94 Column_95 Column_96 Column_97 Column_98 Column_99 Column_100 Column_101 Column_102 Column_103 Column_104 Column_105 Column_106 Column_107 Column_108 Column_109 Column_110 Column_111 Column_112 Column_113 Column_114 Column_115 Column_116 Column_117 Column_118 Column_119 Column_120 Column_121 Column_122 Column_123 Column_124 Column_125 Column_126 Column_127 Column_128 Column_129 Column_130 Column_131 Column_132 Column_133 Column_134 Column_135 Column_136 Column_137 Column_138 Column_139 Column_140 Column_141 Column_142 Column_143 Column_144 Column_145 Column_146 Column_147 Column_148 Column_149 Column_150 Column_151 Column_152 Column_153 Column_154 Column_155 Column_156 Column_157 Column_158 Column_159 Column_160 Column_161 Column_162 Column_163 Column_164 Column_165 Column_166 Column_167 Column_168 Column_169 Column_170 Column_171 Column_172 Column_173 Column_174 Column_175 Column_176 Column_177 Column_178 Column_179 Column_180 Column_181 Column_182 Column_183 Column_184 Column_185 Column_186 Column_187 Column_188 Column_189 Column_190 Column_191 Column_192 Column_193 Column_194 Column_195 Column_196 Column_197 Column_198 Column_199 Column_200 Column_201 Column_202 Column_203 Column_204 Column_205 Column_206 Column_207 Column_208 Column_209 Column_210 Column_211 Column_212 Column_213 Column_214 Column_215 Column_216 Column_217 Column_218 Column_219 Column_220 Column_221 Column_222 Column_223 Column_224 Column_225 Column_226 Column_227 Column_228 Column_229 Column_230 Column_231 Column_232 Column_233 Column_234 Column_235 Column_236 Column_237 Column_238 Column_239 Column_240 Column_241 Column_242 Column_243 Column_244 Column_245 Column_246 Column_247 Column_248 Column_249 Column_250 Column_251 Column_252 Column_253 Column_254 Column_255 Column_256 Column_257 Column_258 Column_259 Column_260 Column_261 Column_262 Column_263 Column_264 Column_265 Column_266 Column_267 Column_268 Column_269 Column_270 Column_271 Column_272 Column_273 Column_274 Column_275 Column_276 Column_277 Column_278 Column_279 Column_280 Column_281 Column_282 Column_283 Column_284 Column_285 Column_286 Column_287 Column_288 Column_289 Column_290 Column_291 Column_292 Column_293 Column_294 Column_295 Column_296 Column_297 Column_298 Column_299 Column_300 Column_301 Column_302 Column_303 Column_304 Column_305 Column_306 Column_307 Column_308 Column_309 Column_310 Column_311 Column_312 Column_313 Column_314 Column_315 Column_316 Column_317 Column_318 Column_319 Column_320 Column_321 Column_322 Column_323 Column_324 Column_325 Column_326 Column_327 Column_328 Column_329 Column_330 Column_331 Column_332 Column_333 Column_334 Column_335 Column_336 Column_337 Column_338 Column_339 Column_340 Column_341 Column_342 Column_343 Column_344 Column_345 Column_346 Column_347 Column_348 Column_349 Column_350 Column_351 Column_352 Column_353 Column_354 Column_355 Column_356 Column_357 Column_358 Column_359 Column_360 Column_361 Column_362 Column_363 Column_364 Column_365 Column_366 Column_367 Column_368 Column_369 Column_370 Column_371 Column_372 Column_373 Column_374 Column_375 Column_376 Column_377 Column_378 Column_379 Column_380 Column_381 Column_382 Column_383 Column_384 Column_385 Column_386 Column_387 Column_388 Column_389 Column_390
feature_infos=none [2.2105298484588003:332.21026859466906] [25.603620900000003:170.286709] [2.2105298484588003:332.210268594669] [181.12895567295823:343.19898198577619] none none [-0.3362:-0.01438] [0.076660000000000006:0.38009999999999999] none none none none none none none none none none [0.94461857302227004:0.99435763888888884] [4.0816325064804205e-13:0.021987097478742199] [4.0525826224831746e-08:0.096257435127482305] [6.6852788206351398e-07:0.36007500820623273] [4.5901853830206233e-13:0.11120413542717909] [7.9381088807842072e-08:0.31070623183186358] [9.4726101742259319e-09:0.5782227752370751] [7.6001055750794544e-09:1.0148408890823539] [3.1268284492151689e-08:2.4613644519635933] [6.0602887148927944e-08:2.9962370111111341] [9.9108893873809459e-09:1.4321180894088561] [9.3652534236262217e-09:1.5897658790148337] [6.0248822865432586e-09:1.3381957924602683] [2.0808267764958121e-08:4.1844891689115205] [6.8344575573595088e-07:0.34163222167499691] [4.4275573324974836e-08:6.9393667936650836] [3.3498339550156514e-08:5.217884225481888] [1.2968563716570034e-09:2.4379717004724344] [1.3489721969253471e-08:3.982285606946089] [6.841078787250811e-09:10.623683632915132] [1.6685625372991943e-09:9.663990000051168] [9.7463189515412261e-09:5.1141184203870917] [4.0185630148789245e-09:6.3203969819312773] [4.6065578518476602e-10:12.250298697540355] [1.2686302419663836e-08:21.116946375819317] [1.359224794753289e-06:0.3073545545972387] [1.2483623687980131e-08:11.71083834184669] [4.6563858708180153e-08:12.844405074492126] [2.607219861735842e-09:21.703158511305059] [6.3076095815457566e-09:28.084807907667692] [5.6429121765039436e-09:18.724574144574436] [1.0697389898101043e-09:6.8682054657896643] [1.515150209794131e-08:3.1656118183480748] [1.4825380951979884e-08:3.506102248742172] [6.1569421795380042e-09:8.6198763788720729] [6.6939438515856661e-09:4.6176713983379729] [3.6330209367809835e-08:0.036472584324867503] [1.1709604043820712e-08:1.8625992083652063] [3.137477271159698e-08:1.4599586209858677] [2.5584247968660999e-09:2.8566898772233671] [2.5568960580797524e-08:4.2918778139945708] [3.4378226184029036e-08:2.2126933794972343] [3.5142311197662842e-08:1.7134355781974366] [8.9395127987914142e-09:3.8109401731835169] [4.8082154824393467e-08:15.210955651212981] [2.9216900733755235e-08:14.253104322476798] [6.0056278871782752e-09:16.724217751404471] [5.4494793749032313e-09:0.047959971616329901] [5.8659719639162417e-08:28.81491537942718] [1.9934089876802761e-08:49.118620406696621] [4.1515775991160371e-08:49.54023879344259] [2.1416470513458332e-08:29.21013684724652] [2.7664062984088861e-10:23.482545138783657] [1.9208971576594505e-08:43.82038982556881] [1.1564692160420583e-09:55.916674292860328] [5.1745841931221866e-09:46.44601938727552] [6.7875733129737263e-09:27.320031297736382] [1.6110133747702535e-09:25.341352288433853] [4.8822841609690533e-07:0.083811232276835498] [5.0758201392381983e-09:29.614229090344669] [3.6604170424534811e-09:34.789132570944055] [1.0111693299550902e-08:18.089456654367048] [6.5203363344144336e-09:10.701587702729256] [4.6696796589490357e-09:14.698157931290568] [6.4104832473693243e-10:12.324590769029395] [5.9633882529822863e-09:8.6730313955114156] [2.4756669910517416e-09:6.1054710386328086] [5.4925224987198235e-08:4.0635454516177534] [4.2737367758597996e-09:3.6277119491997238] [4.6346180708103018e-07:0.065895029913747599] [3.6698228672528338e-10:4.9876276496106593] [3.2451571920060843e-08:3.5588276799769925] [7.8564123049304995e-09:2.2615731372719989] [1.4589402659985125e-08:2.5859635356849164] [5.0881317785671254e-09:2.678306882502596] [2.3189716220838374e-08:2.0508311263731573] [3.0150180928049469e-09:1.2438321575844358] [2.2267030011620481e-12:0.64409677336697957] [1.8711810915155341e-09:0.46004731319034642] [2.9248344630066102e-09:0.34327308430767561] [2.5211034908028765e-07:0.081361602698571095] [1.0195910659803144e-08:0.28259821561307441] [6.3216933080478239e-08:0.18024997399180881] [4.0605137098710845e-10:0.13180856081598741] [8.6038151661780202e-09:0.18362007603891359] [5.4136742973546955e-09:0.14197043557904221] [9.7025944019677376e-09:0.065267262644377905] [5.8160048955819031e-08:0.1221837158128832] [2.991032008929478e-08:0.1118658715887382] [4.3470190563813425e-08:0.080911738501960304] [7.1223670533927966e-09:0.0805657867131961] [6.6449063125645484e-09:0.15772946465367671] [3.3640194231941071e-09:0.097785334353871697] [4.8837652196404665e-08:0.21030107802524309] [9.0228275395139332e-08:0.071010395721088401] [8.6828243188701361e-08:0.080486217232260196] [4.4248588236404119e-07:0.060346697236680298] [1.0743556818181605e-07:0.058963208679484902] [9.1192493853707542e-08:0.1234944625735941] [8.8896655061615242e-09:0.1065553334943124] [5.9956660959859109e-08:0.1277832452475253] [2.1545779075442089e-09:0.14890583035052371] [1.774650610590758e-07:0.3096449824540341] [8.3559437684589489e-09:0.13656692496751391] [2.0661407373235352e-10:0.19902983912829639] [1.1517004472739688e-08:0.096442836760779901] [1.5512550397399091e-09:0.063402309897409706] [1.4145681308688248e-08:0.0606217526092332] [9.3800797562495216e-09:0.049975950904021599] [4.0125307464286822e-08:0.0448927468260929] [5.0319948743885518e-09:0.046670632921926802] [6.5592800793281822e-10:0.032195762744591003] [3.4734675175948583e-09:0.038080924965929797] [3.8604385659895536e-08:0.1867809132532342] [1.7206536781354651e-06:0.30900528364812879] [1.3551031575208482e-08:0.037992205574149597] [2.7991217642648627e-09:0.038431304023740502] [8.6068272432144779e-09:0.048516182223237302] [1.3458396112803549e-07:0.057703592213383802] [4.3727592811735392e-08:0.074720724637131003] [8.5101701265735802e-09:0.079064496017871203] [2.0929881627667876e-08:0.058625686590051899] [3.4238329828484144e-08:0.042104369667015099] [3.8067022749071337e-09:0.0244776957726217] [1.9517033005074046e-09:0.037430495898506499] [3.3504115198710291e-06:0.16292781510058121] [7.4770153794039882e-09:0.061703861585417102] [4.0238180693957319e-09:0.1137515407776509] [1.4257453615841751e-09:0.17438391293627981] [5.3099268456277871e-09:0.24405704658478411] [1.0341226328970058e-08:0.23437876771674659] [7.5244164852461606e-09:0.44463132350015228] [4.5512168388609503e-09:0.51875331602433616] [4.5997406655254107e-09:0.7699104953335969] [2.238739368968057e-08:0.64366416879569333] [2.4799488051980844e-09:0.48281687216216979] [3.9426520894054974e-08:0.31562130406962119] [1.288416605172131e-08:0.59733943885509055] [4.7478264786860562e-08:0.69313220420138766] [9.4015834023238673e-08:0.58493481460292884] [1.2849937578158136e-08:0.96666129990696759] [4.006622373437254e-08:0.7550244162610914] [2.4384859734607301e-08:0.65621722806737237] [1.1068865613649368e-08:0.37691528008634601] [3.5966534599095876e-09:0.2237287550642193] [4.0002500145610845e-11:0.15274194265281391] [2.5360871853535703e-09:0.1062661810907056] [2.804490314498965e-07:0.4688305666919198] [1.2009272781832535e-09:0.051397209775243903] [3.44300009363565e-10:0.057399918925287001] [6.8021099066539467e-10:0.065041436606712993] [1.4483798877029414e-09:0.071835829826318601] [6.5531003438957259e-10:0.047706969807561402] [7.3597476184089759e-10:0.031343458878186702] [6.3975554381105451e-11:0.0154051831164135] [1.1219606797506874e-10:0.0111392462607768] [1.0465667780500279e-11:0.0079234884102565] [1.2904418201281316e-10:0.0036470618281972999] [6.2145859909816229e-07:0.23051803157445561] [2.0581869974310122e-10:0.0022428112095688002] [2.6498821334210559e-11:0.0013326273466558001] [1.9226401732898664e-11:0.00078961568401980002] [9.2935825142446038e-12:0.00057791534438500004] [1.0788662282711572e-11:0.00026060627683119998] [3.8463063971597408e-12:0.00014097511469260001] [1.243579578523523e-12:0.0001029262703749] [4.6469484485670518e-12:5.1975925857403517e-05] [6.6541541941409964e-12:2.6038147552406203e-05] [6.9864526759006978e-13:2.5519930243299167e-05] [1.9052827552228292e-06:0.32972603013468371] [9.9431697903947192e-13:9.7884321874099683e-06] [2.638236960341375e-12:4.0556463772576731e-06] [8.5110433054516238e-12:4.0220790920501121e-06] [8.4156385648369479e-13:1.4818099384505571e-06] [2.3841846467477858e-12:2.5328466090234816e-06] [3.6403753804262349e-16:1.4879580563472758e-06] [4.1028281229834737e-07:1.7241711852864343] [2.930145532195558e-06:0.60542732681789801] [6.8162452323234186e-07:0.44875673538822303] [6.2491573244986898e-07:0.79707266901204943] [2.8155673632346404e-08:0.13223111550291339] [9.0267077173642697e-07:0.95413792056507496] [2.4951694114075117e-06:0.49121842377775971] [1.2448767459180102e-06:0.15036094820204879] [3.6497533590256389e-07:0.067048018628882003] [3.517485408910297e-07:0.0508328179534576] [4.8917701857069467e-07:0.061860441964597598] [1.4302190645558699e-07:0.076536021998116793] [2.7889350104989044e-08:0.044660276699183703] [8.3001336640908185e-07:0.028652501425683] [1.0068557942426184e-06:0.030391353384470601] [1.8705763198073097e-07:0.36768110060725528] [1.2193105071986085e-06:0.1206759730899411] [3.4151140815566302e-07:0.22852996525128019] [1.7246228110701302e-05:0.89660827508352881] [1.9698476653582032e-06:1.5596065230225271] [8.738879964947515e-07:1.6875752202240564] [8.1574117644843969e-06:0.43428913633436111] [1.2676570954357878e-05:0.49452311756060452] [1.9873268314044493e-05:0.51150955578016011] [9.0314388477314683e-07:0.77649797875516913] [9.6920568747867881e-07:1.2408066416347898] [3.0650109962132346e-07:0.32710934306020639] [6.1898823411143418e-07:1.2755320901183544] [6.8719136237905504e-07:0.6978935365845983] [3.5291582037169509e-07:0.49683144855068789] [7.0278123160017082e-08:0.83833358059628904] [5.3835439138950616e-08:1.3040820627835581] [1.7234951622471916e-08:0.36510542531538709] [7.3347057781476813e-07:1.8839164127166383] [1.049701808459527e-07:0.73775468271053024] [1.2047130729065117e-07:0.37826385126888429] [2.2535310446932798e-08:0.224796203050041] [3.3328355167005573e-07:0.96548853227136677] [7.2642911663281926e-07:0.29506751866425007] [2.7940390872172323e-07:1.0927514325955248] [2.3581709362200882e-08:0.42006183219059889] [4.1990012549273058e-07:0.95660416270388438] [1.0757403759310016e-07:0.27259552970445289] [2.0582935659464289e-07:0.11504726933796861] [1.2364428043942426e-07:0.091075478041861002] [1.9658916759138454e-07:0.2786915422875933] [3.5858743730813254e-07:0.25223386980937401] [2.0061012541044413e-07:0.19211007749549119] [3.3907014768635309e-05:0.63065512723941941] [2.5652855483377305e-07:0.21114083290782909] [1.0191852613626759e-07:0.060033601005791103] [1.3808144455531554e-07:0.035449110840830897] [7.7346856919059433e-08:0.086439647858211302] [1.4759464990905685e-07:0.28480975607524123] [1.4427970415751388e-07:0.166984282288061] [1.7352975179023747e-08:0.1585621435137908] [3.9672341684749216e-08:0.14634896094175551] [5.169407431013576e-09:0.052116716472092102] [4.9599801895069086e-08:0.026823196485522699] [3.0179024344874053e-06:0.2474500577338207] [2.5417826274268541e-08:0.057320919068012399] [4.0576532991948012e-08:0.36927089130061141] [7.4870729137676264e-08:0.30718018500998118] [6.1896047411259165e-08:0.50800251038770983] [2.5789083667345922e-07:0.59336644657080317] [1.260954883869473e-07:0.14668583882100819] [4.57516276380312e-07:0.047489638164733797] [9.2695355557331732e-08:0.028335777998212099] [4.2151114166298833e-07:0.056285347745944798] [3.6312345773539081e-07:0.17981331392314509] [2.1023379796854041e-07:1.1491847497687069] [3.7815397183521762e-07:0.088220622037341004] [3.5594517928040951e-07:0.054774667660539102] [6.8141802125026212e-07:0.042825244161530801] [6.9075753164660313e-08:0.0386590844563953] [5.6520916426023314e-08:0.081900472003276895] [3.7876532381517171e-08:0.23123643993453541] [2.01036702281426e-08:0.1609449604657979] [6.587592938551583e-08:0.20905219871167] [1.6528582564492843e-08:0.23537360793223219] [1.6101675221109484e-08:0.1237204079339356] none [0:17] [0:18] [0:35] [0:76] [84:234] [101:369] [0:87] [0:41] [0:19] [0:17] none [0.079129999999999895:0.52794999999999992] [-0.9428768626255688:7.8615614790689854] [4.9536539129860013e-05:0.31636545738056437] [0.0002173382809253:2.0552173166656216] [0.1565328729498956:0.69218252802982727] [0.60167199481614997:1.7634463242362128] [0.0002173382809253:2.0552173166656216] [0.60167199481614997:1.7634463242362128] [0.1565328729498956:0.69218252802982727] [1.9530775728420045e-05:1.0528646324649713] [9.9843083154010478e-05:0.41202276739805588] [2.2381292491862729e-05:0.51342900317218265] [2.2381292491862729e-05:0.51342900317218265] [9.9843083154010478e-05:0.41202276739805588] [1.9530775728420045e-05:1.0528646324649713] [-73.841983690089933:81.106566180366045] [-337.90296260523223:59.362036102157646] [-50.10161737196632:614.86938340812446] [-362.11445100950482:376.05026073192187] [-109.96065428449586:257.85048877611894] [-449.86783865924485:373.93722912841793] [-147.33482654083198:237.84569242333097] [-400.91430091412758:12.813387687405612] [-224.76932361498092:510.4176610561293] [-534.24326010240736:272.78751698313539] [-236.197674417928:576.81613236099065] [-245.14326101255057:373.5957334906555] [0.16850000000000001:3.6299999999999999] [12.656403407646261:294.48976538572833] none [0.0094186386718748995:0.039107823828124999] [0.048303727465820297:0.50537716837310764] [0.026283976516634:0.7585731350293542] [-0.0060189823874754996:0.0058688845401174] [-0.011695000000000001:0.051575000000000003] [0.040154999999999899:0.26939999999999997] [0.021899999999999999:0.39067999999999992] [-0.040599999999999997:0.028799999999999999] none [-3.4079999999999999:-0.099699999999999997] [49:150] [12:37] [0.28647:6.7569999999999997] [49:149] [0.0703125:0.267578125] [0.065707237883440905:0.805511130183167] [511.27872280257839:713.26626045483636] [-0.35362049647442079:0.66071665268442581] [-8.9881605689094232e-05:8.5559145750720939e-05] none [-0.73801961600905663:-0.0059018102724505998] [-22389.329618941632:25401.299514153288] [0.36038049155734603:0.79560543369458336] none [63:95] none none none none none [0.072848265362542103:0.52573764361332853] [0.059055233808907703:0.80511770012099604] [13.431112000000001:387.63087200000001] [0.0043258901144006996:0.65011794245532106] [0.0034875206402247001:0.64821451104812211] [6.450022091149081e-08:0.0036359925483603998] [2.3995551099277937e-08:0.0032791715913463998] [6.2795997019492191e-08:0.0039689970953420001] [1.18596724181855e-07:0.0039378676307473002] [1.0935890534650473e-07:0.0051611931496926] [9.0013469785299102e-08:0.0062995808184830001] [2.0468140709672261e-08:0.0075142786410231999] [5.2067440682373664e-07:0.0091358743272580006] [9.6081090651114684e-08:0.010714261994036601] [0.037945721952204498:1.15782306293401] [0.060255284032375303:0.2995150734203833] [0.060980545294429297:0.2773352129580009] [0.062060458469787201:0.24891387430431119] [0.062286546154578203:0.25096005968899282] [0.0485820113686775:0.23209519758259181] [0.049171538160724997:0.19501832714093889] [0.053071512912510999:0.19049817574760289] [0.0496684577256465:0.2255041010608114] [1.6616074876732538:2.1748466212713606] [0.037945707126557003:1.1578230543264034] [0.0602552220008883:0.29951433038785458] [0.060980432917777501:0.27733518705793447] [0.0620601770361323:0.24891379891713569] [0.062282000219764599:0.25095875950479068] [0.0485233345511355:0.23209199030003849] [0.049076340057031202:0.1950133955925307] [0.053061140696218999:0.19033949392891431] [0.0496676148411919:0.22533473461686579] [0.0014398766893344:1.3405542251297216] [0.0036306917783763002:0.089708834107684904] [0.0037186131988394999:0.076914805980459494] [0.0038514655737559998:0.061958079291360199] [0.0038790475513746999:0.062980298972183296] [0.0023545139959614001:0.053866691961433101] [0.0024084871533933002:0.038030224460528797] [0.0028154846519839001:0.036229122949115199] [0.0024668719640129001:0.0507757426248533] [58:279]
tree_sizes=353 456 457 351 346 453 456 348 347 454 456 353 346 451 453 349 348 449 561 348 348 454 455 349 347 456 456 349 349 452 560 352 348 455 455 349 349 455 669 348 347 458 458 349 350 454 671 350 348 455 459 350 350 457 458 350 350 458 565 349 349 459 459 349 349 457 564 349 350 456 457 350 350 456 563 349 350 459 456 349 350 456 462 350 349 458 572 350 350 461 460 350 350 457 677 350 348 462 459 350 351 458 681 350 351 457 460 351 350 460 675 349 351 458 458 350 351 459 573 349 351 463 463 351 349 458 461 350 351 462 462 351 351 353 463 350 351 462 680 350 351 351 459 352 350 459 460 350 351 455 685 350 351 460 460 349 350 465 461 355 350 466 576 351 350 461 462 350 350 353 681 351 351 464 461 349 350 458 460 355 351 466 575 351 351 464 575 351 351 353 459 351 350 459 575 350 351 353 460 351 350 463 686 353 350 463 465 351 350 465 581 353 351 355 696 354 354 356 463 354 354 356 703 353 354 355 461 353 353 354 466 354 354 468 583 354 353 468 466 353 353 471 465 357 354 471 466 352 354 468 584 353 354 354 466 353 354 353 467 352 354 356 585 353 353 353 692 358 353 356 466 354 354 357 467 355 354 357 470 358 353 355 467 355 355 356 467 354 355 356 468 355 355 356 468 357 355 358 471 357 354 358 473 356 356 357 471 356 357 358 473 357 357 358 471 357 357 358 469 357 353 357 599 357 357 358 472 357 356 358 471 361 357 358 477 356 357 359 472 361 356 357 477 356 357 359 473 357 357 357 471 361 356 359 472 357 357 358 475 357 357 357 472 357 356 358 475 358 356 360 474 357 357 360 475 362 357 359 479 358 357 359 478 358 357 359 476 357 357 358 473 357 358 359 478 358 354 359 479 358 356 359 478 357 358 360 479 356 357 358 478 358 358 357 476 357 358 360 479 358 357 360 478 357 358 358 478 357 358 359 475 356 356 360 479 357 358 359 477 358 357 360 474 358 358 359 477 357 358 360 477 358 357 359 478 362 358 358 359 357 357 360 476 358 358 360 478 356 357 359 472 358 358 360 478 362 358 360 481 358 358 362 480 359 357 362 480 360 356 361 481 360 355 362 362 360 357 362 476 360 357 362 360 360 357 361 361 357 358 362 360 362 358 362 361 359 360 362 362 359 360 361 362 359 360 360 360 359 359 356 360 359 359 361 362 359 360 362 362 358 359 362 360 360 359 361 362 360 358 361 361 359 360 361 362 360 359 361 362 360 358 362 360 360 360 362 360 359 360 361 362 364 358 359 362 359 360 361 361 365 360 363 364 361 358 365 364 362 360 365 363 365 360 365 364 363 359 365 363 363 360 364 364 363 359 365 365 363 360 365 363 362 360 365 365 362 358 365 364 363 360 364 365 363 360 364 363 363 361 365 365 363 363 363 364 363 363 363 365 362 363 365 363 362 363 365 365 367 363 364 365 363 362 365 364 363 363 365 364 363 363 364 365 363 363 364 364 361 363 365 364 362 361 364 364 363 363 365 365 363 360 365 364 367 361 365 365 363 363 364 364 361 362 365 363 363 362 364 365 367 363 364 364 363 363 363 364 363 361 365 365 363 363 364 363 362 363 364 364 363 363 365 364 366 363 365 364 363 363 364 365 366 362 365 365 360 363 365 364 366 363 363 363 363 363 364 364 363 362 363 365 359 363 365 362 362 363 363 365 363 363 365 363 361 362 365 362 363 361 364 362 363 363 364 364 363 363 364 365 362 363 365 364 363 360 364 363 367 362 364 363 367 363 364 365 363 362 364 365 362 363 365 362 363 359 362 363 367 363 364 365 362 363 365 365 363 361 363 364 362 362 364 364 362 363 365 365 361 362 362 365 363 363 364 365 366 363 364 363 363 363 365 365 367 362 363 363 363 363 365 360 363 363 365 365 362 362 365 364 363 360 363 365 363 363 365 365 362 363 363 365 362 363 365 365 363 363 364 365 361 362 365 364 363 363 365 365 363 360 365 363 363 362 363 364 362 363 365 364 363 363 365 365 363 363 365 363 362 362 365 366 363 363 365 363 365 363 364 363 363 360 364 365 366 362 363 365 366 363 365 365 366 363 363 364 363 362 363 364 367 363 363 365 363 361 363 365 362 363 364 363 362 362 365 365 363 363 364 363 363 362 363 364 366 361 365 365 363 361 365 363 363 363 364 365 363 363 364 365 363 362 365 363 366 362 362 363 362 363 365 365 367 363 363 363 362 363 365 364 363 362 366 366 364 361 365 366 364 364 364 364 364 364 364 366 364 363 365 365 366 363 365 365 364 364 365 366 364 364 364 362 364 363 366 366 364 363 365 366 363 364 362 364 364 364 364 365 363 364 366 365 362 363 366 365 364 364 366 366 364 363 365 364 364 364 363 366 362 362 366 366 363 364 365 365 363 364 366 366 364 364 365 365 365 363 362 366 363 364 364 365 368 364 364 366 364 364 365 364 361 364 366 365 363 364 364 366 368 364 365 365 364 364 365 365 364 362 366 365 363 363 365 364 364 364 366 365 363 364 365 365 368 364 363 363 361 364 365 365 363 364 366 366 364 363 364 363 366 364 365 365 364 364 363 365 364 363 365 366 363 362 366 365 364 364 365 366 364 364 366 363 364 363 365 366 364 363 365 365 363 364 363 364 362 364 366 365 368 363 365 366 368 364 365 365 364 362 365 364 361 363 361 365 363 364 366 366 363 363 363 365 363 364 364 365 363 364 366 366 364 364 364 366 362 362 365 362 364 364 366 366 367 364 365 366 364 364 366 366 362 364 364 364 364 364 366 365 363 364 362 365 364 363 365 364 364 361 364 365 364 363 365 365 363 363 366 366 363 364 365 364 363 364 365 365 364 364 365 365 363 362 366 366 368 363 365 365 364 364 364 365 364 364 366 364 363 364 365 366 363 364 362 363 363 363 366 364 366 362 365 364 364 364 366 365 364 364 366 365 368 364 366 364 368 363 365 365 363 362 366 366 364 363 365 365 363 364 365 364 364 363 365 366 366 364 365 365 368 363 366 366 364 363 363 364 364 364 364 366 361 363 364 364 367 364 365 365 364 364 364 364 364 364 366 364 365 364 364 366 364 364 363 365 368 362 365 365 361 363 365 366 364 364 365 365 362 363 365 365 363 363 366 366 362 363 365 363 363 363 365 364 364 364 366 365 362 363 365 366 364 364 364 365 364 362 365 366 364 364 365 363 363 364 366 364 360 364 366 365 364 363 366 366 362 363 366 365 364 364 365 365 363 364 364 366 367 363 366 366 368 364 365 364 364 364 364 365 362 363 366 366 363 363 366 366 368 364 365 364 364 364 365 365 364 363 365 366 362 364 364 365 364 362 364 366 368 364 365 366 364 363 366 366 363 364 366 365 364 364 366 366 363 362 366 366 364 364 361 364 364 363 365 365 364 363 365 366 368 364 365 364 367 364 365 365 364 362 366 365 364 364 366 364 363 364 366 364 364 362 365 363 363 362 365 365 364 364 366 366 364 364 364 365 368 364 364 365 364 362 364 366 363 363 366 365 364 364 366 366 364 364 365 360 365 363 363 365 364 364 365 366 364 363 366 364 367 363 365 366 364 361 363 364 364 364 366 366 360 362 366 365 363 364 365 363 363 364 364 365 364 363 366 365 364 362 364 364 363 364 365 366 364 363 365 364 364 363 363 366 364 364 364 365 368 364 364 365 364 363 366 365 364 363 364 365 363 360 366 366 368 364 366 366 364 363 365 365 364 363 366 366 363 364 365 365 364 364 366 364 364 364 366 365 363 362 365 365 363 364 364 364 364 364 363 365 364 364 366 365 364 364 366 366 367 364 365 365 362 364 365 366 363 364 366 365 363 364 364 365 364 363 366 365 360 361 363 366 364 364 361 366 363 364 362 365 367 362 366 365 368 362 365 367 364 363 366 366 364 363 366 365 368 362 365 365 363 363 365 365 364 364 366 366 364 363 365 364 364 363 366 366 363 364 364 365 364 364 366 365 364 364 363 365 363 364 366 367 367 364 366 366 364 364 366 365 364 364 364 365 364 364 365 366 364 364 365 366 368 361 366 364 364 363 366 366 363 364 366 365 361 364 365 366 368 364 366 365 365 363 366 366 366 364 364 366 364 363 366 365 364 364 366 366 360 363 365 366 364 363 362 366 362 364 366 366 368 362 364 365 368 363 366 365 364 364 365 366 368 362 364 364 363 364 365 366 366 364 365 366 364 364 365 364 364 364 366 366 363 363 364 366 364 364 366 366 364 364 366 366 363 364 366 365 363 363 363 366 363 363 366 366 366 364 366 365 368 362 365 366 364 364 365 364 368 364 366 366 363 362 365 365 361 363 363 366 364 364 364 366 364 364 365 364 364 364 365 364 364 364 365 366 364 364 364 366 365 364 366 363 363 364 366 365 364 363 365 365 363 364 363 366 364 364 366 365 363 363 366 366 365 363 363 366 364 364 366 366 363 363 364 364 368 364 364 367 364 363 365 365 363 364 365 364 364 363 366 364 362 364 366 365 362 363 365 366 361 364 366 366 363 363 363 365 367 364 366 366 363 364 365 365 364 364 365 363 364 362 366 366 363 364 364 366 363 364 365 363 364 361 366 364 364 364 366 366 363 363 366 365 364 363 365 364 363 364 361 365 363 363 365 366 364 364 365 366 364 363 366 365 364 364 364 364 368 362 365 366 364 364 366 366 364 360 366 363 364 364 365 365 367 364 366 366 364 364 366 366 361 363 364 364 364 363 365 365 363 363 365 366 364 364 365 366 359 364 366 364 363 363 366 366 364 363 366 366 364 363 364 364 364 364 365 365 364 363 365 365 362 364 366 364 368 364 366 365 363 362 365 365 364 363 363 367 368 364 364 365 364 364 365 364 362 364 364 365 364 364 365 365 364 364 365 365 364 363 366 364 364 363 366 366 364 364 364 366 363 364 363 366 364 363 365 364 364 363 366 366 364 363 366 366 362 364 366 365 363 363 365 365 365 364 365 366 363 364 365 366 364 363 366 365 368 361 365 365 364 364 365 366 364 364 363 365 364 363 366 367 367 363 365 366 364 363 365 365 364 364 366 366 364 363 366 364 363 364 366 365 364 364 366 365 364 364 365 365 363 363 365 366 362 363 364 364 363 364 362 365 363 364 366 365 368 364 365 366 364 364 367 367 364 364 366 367 364 363 366 366 368 364 367 367 369 364 367 366 365 363 366 366 364 362 367 367 364 361 365 367 369 364 367 368 364 364 368 367 368 364 367 368 366 363 365 368 366 364 365 367 366 363 366 368 366 364 367 368 370 364 368 367 369 364 367 367 364 364 368 367 365 364 367 367 366 364 367 366 366 364 368 367 366 364 366 368 370 364 365 364 366 364 367 365 369 364 365 367 366 364 368 368 366 363 368 366 365 363 368 364 366 362 365 367 366 364 365 368 363 363 366 368 366 362 368 366 366 363 366 368 365 363 366 368 364 363 367 367 365 363 368 365 366 364 367 368 365 364 367 367 366 362 367 367 366 362 366 366 366 364 367 368 370 363 368 366 366 363 368 367 365 363 367 367 366 362 367 368 370 364 367 367 366 364 368 367 370 364 366 368 366 363 368 367 366 365 368 367 366 365 367 368 365 365 365 365 365 365 366 367 365 365 367 368 364 365 368 364 366 365 368 368 365 365 365 368 364 366 367 366 366 363 368 368 366 364 368 367 366 366 368 368 366 366 365 367 364 366 368 368 370 365 367 368 369 364 368 366 365 366 368 368 366 366 368 368 365 366 367 367 366 366 368 367 366 365 366 367 370 366 368 366 366 365 367 368 366 366 367 367 365 366 368 368 366 365 368 365 365 366 368 366 366 366 367 368 366 365 367 368 364 366 366 368 366 366 366 368 370 366 367 367 365 366 368 368 365 366 368 363 366 366 368 366 366 366 367 367 364 365 368 368 365 366 367 368 366 365 367 367 364 365 367 367 366 366 368 368 370 365 368 366 366 365 368 368 364 366 368 368 365 366 367 368 366 365 367 368 369 365 368 367 363 366 367 367 365 366 367 368 370 366 367 367 366 366 367 368 365 366 367 369 369 366 366 368 365 366 367 367 366 366 367 367 366 365 368 368 366 365 365 367 364 366 368 367 365 365 367 368 366 365 367 368 370 366 368 369 365 365 368 366 367 365 368 368 366 363 367 368 365 365 367 369 369 364 367 368 365 366 367 366 366 365 368 368 366 366 367 367 364 365 368 368 366 366 367 367 364 366 366 366 370 366 368 368 366 364 368 368 365 366 366 369 369 365 368 368 366 366 367 367 368 365 367 368 366 366 366 368 365 366 366 368 366 366 367 366 369 366 367 366 366 366 367 368 364 366 366 369 363 366 368 369 366 366 366 368 366 366 366 367 362 365 367 367 365 366 368 367 365 366 367 366 365 366 368 369 366 366 366 368 364 366 366 368 366 366 367 369 370 365 365 367 368 365 364 367 364 366 367 367 366 363 367 368 366 365 367 367 365 366 366 367 366 366 367 368 366 364 368 369 366 366 368 368 366 366 368 367 363 366 365 367 366 365 366 367 365 366 367 367 365 366 368 368 365 366 368 368 364 366 365 366 364 366 368 367 369 366 368 367 366 366 367 366 365 366 367 366 370 366 367 368 364 366 366 368 366 366 367 367 366 362 365 369 364 366 367 363 369 365 368 368 366 366 367 368 363 366 368 369 369 366 367 367 366 365 368 367 365 366 367 369 365 365 367 366 365 365 366 366 366 365 368 367 366 365 366 367 367 366 368 368 364 366 366 367 367 366 367 366 366 366 224 368 366 366 224 369 367 365 224 363 368 366 224 368 224 366 224 366 224 366 224 367 224 365 224 368 224 366 224 367 224 366 224 369 224 366 224 368 224 366 224 367 224 366 224 368 224 363 224 368 224 366 224 368 224 366 224 369 224 366 224 368 224 365 224 369 224 366 224 369 224 365 224 369 224 366 224 368 224 366 224 368 224 365 224 368 224 365 224 369 224 364 224 368 224 366 224 367 224 365 224 368 224 366 224 369 224 366 224 367 224 365 224 369 224 366 224 367 224 366 224 368 224 365 224 369 224 365 224 369 224 366 224 369 224 364 224 369 224 366 224 368 224 366 224 367 224 365 224 369 224 366 224 367 224 366 224 367 224 366 224 369 224 366 224 368 224 366 224 369 224 366 224 369 224 365 224 368 224 366 224 368 224 365 224 369 224 366 224 369 224 366 224 369 224 365 224 368 224 365 224 367 224 364 224 368 224 366 224 368 224 366 224 368 224 366 224 368 224 365 224 368 224 366 224 367 224 366 224 369 224 366 224 368 224 366 224 367 224 366 224 368 224 366 224 367 224 365 224 368 224 365 224 368 224 366 224 369 224 366 224 369 224 366 224 368 224 365 224 370 224 365 224 368 224 365 224 368 224 366 224 224 224 366 224 224 224 365 224 224 224 366 224 224 224 365 224 224 224 366 224 224 224 366 224 224 224 367 224 224 224 366 224 224 224 365 224 224 224 366 224 224 224 366 224 224 224 368 224 224 224 367 224 224 224 366 224 224 224 368 224 224 224

Tree=0
num_leaves=2
num_cat=0
split_feature=280
split_gain=5359.75
threshold=6.5000000000000009
decision_type=2
left_child=-1
right_child=-2
leaf_value=-0.71632258604069166 -1.0272405888813005
leaf_weight=933.59949386119843 1364.8626427650452
leaf_count=2903 4244
internal_value=-0.900948
internal_weight=0
internal_count=7147
is_linear=0
shrinkage=1


Tree=1
num_leaves=3
num_cat=0
split_feature=226 25
split_gain=5325.96 10.9155
threshold=0.020652794831373354 0.0071001132893468511
decision_type=2 2
left_child=-1 -2
right_child=1 -3
leaf_value=-1.7089366032502331 -1.4077911412675475 -1.2382412080484249
leaf_weight=1214.6655151993036 4.2478248476982108 299.0468692779541
leaf_count=5719 20 1408
internal_value=-1.61533 -1.24055
internal_weight=0 303.295
internal_count=7147 1428
is_linear=0
shrinkage=1


Tree=2
num_leaves=3
num_cat=0
split_feature=363 21
split_gain=5312.12 22.945
threshold=0.098365894786880473 0.00036567202177180007
decision_type=2 2
left_child=1 -1
right_child=-2 -3
leaf_value=-1.2364878345698371 -1.7061910794373927 -1.4745227044734586
leaf_weight=301.16905093193054 1215.7439002990723 4.2568063735961905
leaf_count=1415 5712 20
internal_value=-1.61252 -1.23976
internal_weight=0 305.426
internal_count=7147 1435
is_linear=0
shrinkage=1


Tree=3
num_leaves=2
num_cat=0
split_feature=315
split_gain=5358.69
threshold=1.9680000000000002
decision_type=2
left_child=-1
right_child=-2
leaf_value=-1.7248802662832345 -1.2483579796697277
leaf_weight=1206.0990227907896 293.29038682579994
leaf_count=5749 1398
internal_value=-1.63165
internal_weight=0
internal_count=7147
is_linear=0
shrinkage=1


Tree=4
num_leaves=2
num_cat=0
split_feature=280
split_gain=4165.78
threshold=6.5000000000000009
decision_type=2
left_child=-1
right_child=-2
leaf_value=0.15805177702768025 -0.11634077070628697
leaf_weight=965.1349179148674 1296.3125947117805
leaf_count=2903 4244
internal_value=0
internal_weight=0
internal_count=7147
is_linear=0
shrinkage=0.1


Tree=5
num_leaves=3
num_cat=0
split_feature=364 24
split_gain=3554.19 4.31634
threshold=0.21343028798277416 0.00039336337266810008
decision_type=2 2
left_child=-1 -2
right_child=1 -3
leaf_value=-0.091218462515879506 0.16041346680889179 0.26091694711441377
leaf_weight=1114.8407990634441 4.9049928039312354 384.4509172141552
leaf_count=5719 20 1408
internal_value=0 0.259692
internal_weight=0 389.356
internal_count=7147 1428
is_linear=0
shrinkage=0.1


Tree=6
num_leaves=3
num_cat=0
split_feature=363 29
split_gain=3546.55 12.4525
threshold=0.098365894786880473 8.1184402749359417e-05
decision_type=2 2
left_child=1 -1
right_child=-2 -3
leaf_value=0.098521002611944269 -0.091264469356583069 0.26048507668244936
leaf_weight=4.9671053886413565 1115.6042575091124 386.74076333642006
leaf_count=20 5712 1415
internal_value=0 0.258457
internal_weight=0 391.708
internal_count=7147 1435
is_linear=0
shrinkage=0.1


Tree=7
num_leaves=2
num_cat=0
split_feature=315
split_gain=3546.66
threshold=1.9680000000000002
decision_type=2
left_child=-1
right_child=-2
leaf_value=-0.090900762161998022 0.26327020577009397
leaf_weight=1106.5215890258551 379.67880627512932
leaf_count=5749 1398
internal_value=0
internal_weight=0
internal_count=7147
is_linear=0
shrinkage=0.1


Tree=8
num_leaves=2
num_cat=0
split_feature=280
split_gain=3320.82
threshold=6.5000000000000009
decision_type=2
left_child=-1
right_child=-2
leaf_value=0.13976729900367876 -0.10894216122458254
leaf_weight=962.45796591043472 1213.8042127490044
leaf_count=2903 4244
internal_value=0
internal_weight=0
internal_count=7147
is_linear=0
shrinkage=0.1


Tree=9
num_leaves=3
num_cat=0
split_feature=228 29
split_gain=2633.95 2.40109
threshold=0.053895406747086358 0.0051284239480496006
decision_type=2 2
left_child=-1 -2
right_child=1 -3
leaf_value=-0.089112020873201803 0.13154587666499859 0.20425316347915029
leaf_weight=1016.1722493320704 5.2903667092323294 436.15883377194405
leaf_count=5719 20 1408
internal_value=0 0.203412
internal_weight=0 441.449
internal_count=7147 1428
is_linear=0
shrinkage=0.1


Tree=10
num_leaves=3
num_cat=0
split_feature=363 32
split_gain=2628.6 8.56951
threshold=0.098365894786880473 0.00041063412757640002
decision_type=2 2
left_child=1 -1
right_child=-2 -3
leaf_value=0.075272005463953934 -0.089145448948991013 0.20404200515061449
leaf_weight=5.3829841315746298 1016.7075174152851 438.50547939538956
leaf_count=20 5712 1415
internal_value=0 0.202498
internal_weight=0 443.888
internal_count=7147 1435
is_linear=0
shrinkage=0.1


Tree=11
num_leaves=2
num_cat=0
split_feature=339
split_gain=2619.76
threshold=1.0000000180025095e-35
decision_type=2
left_child=-1
right_child=-2
leaf_value=-0.088843182607528062 0.20544888911963421
leaf_weight=1008.2282834798098 432.01311352849007
leaf_count=5749 1398
internal_value=0
internal_weight=0
internal_count=7147
is_linear=0
shrinkage=0.1


Tree=12
num_leaves=2
num_cat=0
split_feature=280
split_gain=2691.79
threshold=6.5000000000000009
decision_type=2
left_child=-1
right_child=-2
leaf_value=0.12654822897522375 -0.10316519296554434
leaf_weight=934.391361951828 1123.1973576247692
leaf_count=2903 4244
internal_value=0
internal_weight=0
internal_count=7147
is_linear=0
shrinkage=0.1


Tree=13
num_leaves=3
num_cat=0
split_feature=195 7
split_gain=2051.28 1.49665
threshold=0.25608932385887767 -0.20254999999999998
decision_type=2 2
left_child=-1 -2
right_child=1 -3
leaf_value=-0.087253896275409304 0.1133505715581324 0.17053263774018004
leaf_weight=919.99589410424232 5.4249882996082297 462.47309279441833
leaf_count=5719 20 1408
internal_value=0 0.169894
internal_weight=0 467.898
internal_count=7147 1428
is_linear=0
shrinkage=0.1


Tree=14
num_leaves=3
num_cat=0
split_feature=363 44
split_gain=2046.76 6.63616
threshold=0.098365894786880473 0.011794301617965101
decision_type=2 2
left_child=1 -1
right_child=-2 -3
leaf_value=0.17042516393332985 -0.087277011455806186 0.05940514214502423
leaf_weight=464.81019720435143 920.31833684444427 5.5847857892513266
leaf_count=1415 5712 20
internal_value=0 0.16912
internal_weight=0 470.395
internal_count=7147 1435
is_linear=0
shrinkage=0.1


Tree=15
num_leaves=2
num_cat=0
split_feature=315
split_gain=2036.58
threshold=1.9680000000000002
decision_type=2
left_child=-1
right_child=-2
leaf_value=-0.087025256064120773 0.17122720348703338
leaf_weight=912.49419167637825 458.81560498476028
leaf_count=5749 1398
internal_value=0
internal_weight=0
internal_count=7147
is_linear=0
shrinkage=0.1


Tree=16
num_leaves=2
num_cat=0
split_feature=328
split_gain=2207.88
threshold=106.00000000000001
decision_type=2
left_child=-1
right_child=-2
leaf_value=0.11664253830219529 -0.098539504699110755
leaf_weight=888.4511407315731 1028.9618819504976
leaf_count=2903 4244
internal_value=0
internal_weight=0
internal_count=7147
is_linear=0
shrinkage=0.1


Tree=17
num_leaves=3
num_cat=0
split_feature=236 371
split_gain=1643.58 1.00766
threshold=0.030916724609508252 2.1189238111772792
decision_type=2 2
left_child=-1 -2
right_child=1 -3
leaf_value=-0.085620619375450818 0.1007113450609019 0.14829999491381704
leaf_weight=827.75773605704308 5.3767748028039923 469.2231684923172
leaf_count=5719 20 1408
internal_value=0 0.147782
internal_weight=0 474.6
internal_count=7147 1428
is_linear=0
shrinkage=0.1


Tree=18
num_leaves=4
num_cat=0
split_feature=374 234 374
split_gain=1639.6 3.83371 0.492186
threshold=0.097438444672773267 0.093465053257260608 0.10401385707408951
decision_type=2 2 2
left_child=1 -1 -2
right_child=2 -3 -4
leaf_value=0.053521765597381248 -0.050712968353241607 0.14824033222590366 -0.08566219744338005
leaf_weight=4.4588063061237326 4.5537280142307273 471.51215574145317 824.49671842157841
leaf_count=20 28 1415 5684
internal_value=0 0.147364 -0.0854764
internal_weight=0 475.971 829.05
internal_count=7147 1435 5712
is_linear=0
shrinkage=0.1


Tree=19
num_leaves=2
num_cat=0
split_feature=315
split_gain=1630.33
threshold=1.9680000000000002
decision_type=2
left_child=-1
right_child=-2
leaf_value=-0.085426230441022655 0.1487569047741607
leaf_weight=820.77103818953037 465.96663799881935
leaf_count=5749 1398
internal_value=0
internal_weight=0
internal_count=7147
is_linear=0
shrinkage=0.1


Tree=20
num_leaves=2
num_cat=0
split_feature=280
split_gain=1826.95
threshold=6.5000000000000009
decision_type=2
left_child=-1
right_child=-2
leaf_value=0.1090178207232718 -0.094777623235915043
leaf_weight=830.86854454874992 934.55178910493851
leaf_count=2903 4244
internal_value=0
internal_weight=0
internal_count=7147
is_linear=0
shrinkage=0.1


Tree=21
num_leaves=3
num_cat=0
split_feature=373 27
split_gain=1340.94 0.69837
threshold=0.20807110851437208 0.099530739464121512
decision_type=2 2
left_child=-1 -2
right_child=1 -3
leaf_value=-0.084191031924827228 0.091853932438336394 0.13267453602514584
leaf_weight=740.61488455533981 5.2005110681056967 461.29493802785873
leaf_count=5719 20 1408
internal_value=0 0.132239
internal_weight=0 466.495
internal_count=7147 1428
is_linear=0
shrinkage=0.1


Tree=22
num_leaves=3
num_cat=0
split_feature=363 64
split_gain=1338.27 4.1285
threshold=0.098365894786880473 0.0063157374988459013
decision_type=2 2
left_child=1 -1
right_child=-2 -3
leaf_value=0.043477426338128643 -0.084205328390198064 0.13267103574306607
leaf_weight=5.3711484372615805 740.83097526431084 463.51565223932266
leaf_count=20 5712 1415
internal_value=0 0.131659
internal_weight=0 468.887
internal_count=7147 1435
is_linear=0
shrinkage=0.1


Tree=23
num_leaves=2
num_cat=0
split_feature=315
split_gain=1329.83
threshold=1.9680000000000002
decision_type=2
left_child=-1
right_child=-2
leaf_value=-0.084025938177496401 0.13302651917441963
leaf_weight=734.20044374465942 458.43554157018661
leaf_count=5749 1398
internal_value=0
internal_weight=0
internal_count=7147
is_linear=0
shrinkage=0.1


Tree=24
num_leaves=2
num_cat=0
split_feature=280
split_gain=1522.58
threshold=6.5000000000000009
decision_type=2
left_child=-1
right_child=-2
leaf_value=0.1030525689753375 -0.09168601874896895
leaf_weight=766.74334135651588 842.59751719236374
leaf_count=2903 4244
internal_value=0
internal_weight=0
internal_count=7147
is_linear=0
shrinkage=0.1


Tree=25
num_leaves=3
num_cat=0
split_feature=244 366
split_gain=1107.48 0.529584
threshold=0.019495086841187503 0.18487049117327051
decision_type=2 2
left_child=-1 -2
right_child=1 -3
leaf_value=-0.082943829374275038 0.084453542086952202 0.12121035290941116
leaf_weight=659.33696222305298 4.9570896178483954 442.83917787671089
leaf_count=5719 20 1408
internal_value=0 0.120822
internal_weight=0 447.796
internal_count=7147 1428
is_linear=0
shrinkage=0.1


Tree=26
num_leaves=3
num_cat=0
split_feature=363 61
split_gain=1104.84 3.71414
threshold=0.098365894786880473 0.00076750390926240018
decision_type=2 2
left_child=1 -1
right_child=-2 -3
leaf_value=0.035451707960174453 -0.082953208705644543 0.12122609119431449
leaf_weight=5.2072806656360617 659.4080541357398 444.99009066820145
leaf_count=20 5712 1415
internal_value=0 0.120242
internal_weight=0 450.197
internal_count=7147 1435
is_linear=0
shrinkage=0.1


Tree=27
num_leaves=2
num_cat=0
split_feature=315
split_gain=1097.95
threshold=1.9680000000000002
decision_type=2
left_child=-1
right_child=-2
leaf_value=-0.082803096919297492 0.12146970738739118
leaf_weight=653.47698155790567 440.34357354044914
leaf_count=5749 1398
internal_value=0
internal_weight=0
internal_count=7147
is_linear=0
shrinkage=0.1


Tree=28
num_leaves=2
num_cat=0
split_feature=280
split_gain=1275.92
threshold=6.5000000000000009
decision_type=2
left_child=-1
right_child=-2
leaf_value=0.09830160870332498 -0.089123371785590544
leaf_weight=699.87684497237206 754.88032150268555
leaf_count=2903 4244
internal_value=0
internal_weight=0
internal_count=7147
is_linear=0
shrinkage=0.1


Tree=29
num_leaves=3
num_cat=0
split_feature=364 30
split_gain=922.5 0.512895
threshold=0.21343028798277416 0.0021877096470454501
decision_type=2 2
left_child=-1 -2
right_child=1 -3
leaf_value=-0.081858174132974915 0.07579234771256449 0.11253732244559461
leaf_weight=584.3532143086195 4.6841691806912413 417.33112400770187
leaf_count=5719 20 1408
internal_value=0 0.112148
internal_weight=0 422.015
internal_count=7147 1428
is_linear=0
shrinkage=0.1


Tree=30
num_leaves=4
num_cat=0
split_feature=364 371 364
split_gain=920.474 2.04349 0.424563
threshold=0.097439235452135356 2.0822825407920473 0.10401706626490186
decision_type=2 2 2
left_child=1 -1 -2
right_child=2 -3 -4
leaf_value=0.03777127001008667 -0.044810059573784922 0.11254225466006236 -0.081893774311066314
leaf_weight=3.8151916563510886 3.4943924695253363 419.33491721749306 582.07276134192944
leaf_count=20 28 1415 5684
internal_value=0 0.111877 -0.0816802
internal_weight=0 423.15 585.567
internal_count=7147 1435 5712
is_linear=0
shrinkage=0.1


Tree=31
num_leaves=2
num_cat=0
split_feature=339
split_gain=914.599
threshold=1.0000000180025095e-35
decision_type=2
left_child=-1
right_child=-2
leaf_value=-0.08173881182187151 0.11272684168337849
leaf_weight=579.09114294499159 415.13718861341476
leaf_count=5749 1398
internal_value=0
internal_weight=0
internal_count=7147
is_linear=0
shrinkage=0.1


Tree=32
num_leaves=2
num_cat=0
split_feature=328
split_gain=1073.87
threshold=106.00000000000001
decision_type=2
left_child=-1
right_child=-2
leaf_value=0.094462782172060208 -0.086985759734890603
leaf_weight=633.08351041376591 672.597357198596
leaf_count=2903 4244
internal_value=0
internal_weight=0
internal_count=7147
is_linear=0
shrinkage=0.1


Tree=33
num_leaves=3
num_cat=0
split_feature=228 32
split_gain=773.652 0.406241
threshold=0.053895406747086358 0.015002326124130052
decision_type=2 2
left_child=-1 -2
right_child=1 -3
leaf_value=-0.080917332643898054 0.071396734791258271 0.10580695884425616
leaf_weight=515.97093793004751 4.3195322006940833 387.50040730834007
leaf_count=5719 20 1408
internal_value=0 0.105446
internal_weight=0 391.82
internal_count=7147 1428
is_linear=0
shrinkage=0.1


Tree=34
num_leaves=3
num_cat=0
split_feature=363 74
split_gain=771.922 2.78183
threshold=0.098365894786880473 0.0051662598208674507
decision_type=2 2
left_child=1 -1
right_child=-2 -3
leaf_value=0.026749023533070317 -0.080924168811986247 0.1058389588132484
leaf_weight=4.5787064731121054 516.05038610100746 389.45484879612923
leaf_count=20 5712 1415
internal_value=0 0.104927
internal_weight=0 394.034
internal_count=7147 1435
is_linear=0
shrinkage=0.1


Tree=35
num_leaves=2
num_cat=0
split_feature=315
split_gain=767.005
threshold=1.9680000000000002
decision_type=2
left_child=-1
right_child=-2
leaf_value=-0.080814820730965978 0.10596099852547643
leaf_weight=511.22201780229807 385.62443661689758
leaf_count=5749 1398
internal_value=0
internal_weight=0
internal_count=7147
is_linear=0
shrinkage=0.1


Tree=36
num_leaves=2
num_cat=0
split_feature=280
split_gain=907.243
threshold=6.5000000000000009
decision_type=2
left_child=-1
right_child=-2
leaf_value=0.091342210310401906 -0.085193117565699431
leaf_weight=568.4530064612627 596.46925640106201
leaf_count=2903 4244
internal_value=0
internal_weight=0
internal_count=7147
is_linear=0
shrinkage=0.1


Tree=37
num_leaves=3
num_cat=0
split_feature=236 7
split_gain=651.958 0.304207
threshold=0.030916724609508252 -0.20254999999999998
decision_type=2 2
left_child=-1 -2
right_child=1 -3
leaf_value=-0.080101701706163042 0.069083354407138101 0.10047667535309567
leaf_weight=454.03861638903618 4.0519028455018988 355.41169700026512
leaf_count=5719 20 1408
internal_value=0 0.100142
internal_weight=0 359.464
internal_count=7147 1428
is_linear=0
shrinkage=0.1


Tree=38
num_leaves=5
num_cat=0
split_feature=364 371 306 214
split_gain=650.248 1.47545 0.976788 0.317866
threshold=0.097439235452135356 2.0822825407920473 -241.16482807096514 3.7041179924773607e-05
decision_type=2 2 2 2
left_child=1 -1 -2 -4
right_child=2 -3 3 -5
leaf_value=0.032608133647116705 0.08285219785177525 0.10049373896033459 -0.020143080075473694 -0.080135158922018349
leaf_weight=3.3510068655014029 0.2926480770111074 357.18777692317963 0.96352159976959129 453.8783993050456
leaf_count=20 1 1415 9 5702
internal_value=0 0.099872 -0.0798896 -0.0800125
internal_weight=0 360.539 455.135 454.842
internal_count=7147 1435 5712 5711
is_linear=0
shrinkage=0.1


Tree=39
num_leaves=2
num_cat=0
split_feature=315
split_gain=646.227
threshold=1.9680000000000002
decision_type=2
left_child=-1
right_child=-2
leaf_value=-0.080013332024564759 0.10060487404535652
leaf_weight=449.7771623134613 353.83415526151657
leaf_count=5749 1398
internal_value=0
internal_weight=0
internal_count=7147
is_linear=0
shrinkage=0.1


Tree=40
num_leaves=2
num_cat=0
split_feature=280
split_gain=768.518
threshold=6.5000000000000009
decision_type=2
left_child=-1
right_child=-2
leaf_value=0.0887650304083418 -0.083683347787443574
leaf_weight=507.09897239506245 526.7791720032692
leaf_count=2903 4244
internal_value=0
internal_weight=0
internal_count=7147
is_linear=0
shrinkage=0.1


Tree=41
num_leaves=3
num_cat=0
split_feature=244 366
split_gain=551.564 0.251475
threshold=0.019495086841187503 0.18487049117327051
decision_type=2 2
left_child=-1 -2
right_child=1 -3
leaf_value=-0.079395920775459414 0.065853328533727246 0.096219656628968031
leaf_weight=398.38712952286005 3.6676373183727256 322.85717551410198
leaf_count=5719 20 1408
internal_value=0 0.0958988
internal_weight=0 326.525
internal_count=7147 1428
is_linear=0
shrinkage=0.1


Tree=42
num_leaves=3
num_cat=0
split_feature=363 132
split_gain=550.171 2.18369
threshold=0.098365894786880473 0.0005634966312052501
decision_type=2 2
left_child=1 -1
right_child=-2 -3
leaf_value=0.096266089763125284 -0.079399936766074611 0.020349625836122855
leaf_weight=324.66911265254021 398.4059232622385 3.8952862471342078
leaf_count=1415 5712 20
internal_value=0 0.0953725
internal_weight=0 328.564
internal_count=7147 1435
is_linear=0
shrinkage=0.1


Tree=43
num_leaves=2
num_cat=0
split_feature=53
split_gain=546.343
threshold=0.55075403969501735
decision_type=2
left_child=-1
right_child=-2
leaf_value=-0.079319407167263753 0.096251701336226458
leaf_weight=394.4307699650526 321.70761731266975
leaf_count=5747 1400
internal_value=0
internal_weight=0
internal_count=7147
is_linear=0
shrinkage=0.1


Tree=44
num_leaves=2
num_cat=0
split_feature=280
split_gain=652.742
threshold=6.5000000000000009
decision_type=2
left_child=-1
right_child=-2
leaf_value=0.086638604826094257 -0.082407561011136651
leaf_weight=450.05476801097393 463.61928597837687
leaf_count=2903 4244
internal_value=0
internal_weight=0
internal_count=7147
is_linear=0
shrinkage=0.1


Tree=45
num_leaves=3
num_cat=0
split_feature=195 371
split_gain=468.046 0.19823
threshold=0.25608932385887767 2.1189238111772792
decision_type=2 2
left_child=-1 -2
right_child=1 -3
leaf_value=-0.078785343198062366 0.063834631718467885 0.092762678701304002
leaf_weight=348.67281454056501 3.3299436569213858 290.86116442084312
leaf_count=5719 20 1408
internal_value=0 0.092457
internal_weight=0 294.191
internal_count=7147 1428
is_linear=0
shrinkage=0.1


Tree=46
num_leaves=5
num_cat=0
split_feature=364 234 306 312
split_gain=466.578 1.14563 0.616236 0.134113
threshold=0.097439235452135356 0.093465053257260608 -233.32635029158294 94.163334261088877
decision_type=2 2 2 2
left_child=1 -1 -2 -4
right_child=2 -3 3 -5
leaf_value=0.027948932328900573 0.048751713115170625 0.092779761671011485 -0.078813924436840932 -0.043684982316181474
leaf_weight=2.8573454916477194 0.31798948347568412 292.37195797264576 347.77355521544814 1.4955158233642567
leaf_count=20 2 1415 5690 20
internal_value=0 0.092162 -0.0785462 -0.0786761
internal_weight=0 295.229 349.587 349.269
internal_count=7147 1435 5712 5710
is_linear=0
shrinkage=0.1


Tree=47
num_leaves=2
num_cat=0
split_feature=315
split_gain=463.976
threshold=1.9680000000000002
decision_type=2
left_child=-1
right_child=-2
leaf_value=-0.078719228924603479 0.092857160644973624
leaf_weight=345.28462003171444 289.79661794006824
leaf_count=5749 1398
internal_value=0
internal_weight=0
internal_count=7147
is_linear=0
shrinkage=0.1


Tree=48
num_leaves=2
num_cat=0
split_feature=280
split_gain=555.438
threshold=6.5000000000000009
decision_type=2
left_child=-1
right_child=-2
leaf_value=0.0848602192231592 -0.081326435110006048
leaf_weight=397.57825590670109 406.78464806079865
leaf_count=2903 4244
internal_value=0
internal_weight=0
internal_count=7147
is_linear=0
shrinkage=0.1


Tree=49
num_leaves=3
num_cat=0
split_feature=363 27
split_gain=398.13 0.177945
threshold=0.2080834826472038 0.099530739464121512
decision_type=2 2
left_child=-1 -2
right_child=1 -3
leaf_value=-0.078257119835491495 0.060702889982347158 0.089939455138026647
leaf_weight=304.47989138588309 2.9568035379052153 260.32470311224461
leaf_count=5719 20 1408
internal_value=0 0.0896343
internal_weight=0 263.282
internal_count=7147 1428
is_linear=0
shrinkage=0.1


Tree=50
num_leaves=3
num_cat=0
split_feature=363 85
split_gain=396.981 1.78349
threshold=0.098365894786880473 9.3335600348804374e-05
decision_type=2 2
left_child=1 -1
right_child=-2 -3
leaf_value=0.014565149787655204 -0.078259799686928339 0.089985434064390718
leaf_weight=3.2162973284721366 304.46813149750233 261.91845245659351
leaf_count=20 5712 1415
internal_value=0 0.0890764
internal_weight=0 265.135
internal_count=7147 1435
is_linear=0
shrinkage=0.1


Tree=51
num_leaves=2
num_cat=0
split_feature=315
split_gain=394.725
threshold=1.9680000000000002
decision_type=2
left_child=-1
right_child=-2
leaf_value=-0.078199906233731686 0.090019212718593838
leaf_weight=301.47362421825528 259.43648280203342
leaf_count=5749 1398
internal_value=0
internal_weight=0
internal_count=7147
is_linear=0
shrinkage=0.1


Tree=52
num_leaves=2
num_cat=0
split_feature=280
split_gain=473.542
threshold=6.5000000000000009
decision_type=2
left_child=-1
right_child=-2
leaf_value=0.083377573211942155 -0.080407240584580944
leaf_weight=349.96812351047993 355.99186015874147
leaf_count=2903 4244
internal_value=0
internal_weight=0
internal_count=7147
is_linear=0
shrinkage=0.1


Tree=53
num_leaves=3
num_cat=0
split_feature=226 35
split_gain=339.314 0.143327
threshold=0.020652794831373354 0.58648224280235783
decision_type=2 2
left_child=-1 -2
right_child=1 -3
leaf_value=-0.077800285315542839 0.059731282079145721 0.087607357834660976
leaf_weight=265.38095331564546 2.7597726657986632 231.49781154096127
leaf_count=5719 21 1407
internal_value=0 0.0873046
internal_weight=0 234.258
internal_count=7147 1428
is_linear=0
shrinkage=0.1


Tree=54
num_leaves=3
num_cat=0
split_feature=363 263
split_gain=338.109 1.70202
threshold=0.098365894786880473 0.0062109950247788009
decision_type=2 2
left_child=1 -1
right_child=-2 -3
leaf_value=0.087645403762230401 -0.077801199408555843 0.011052033529261075
leaf_weight=233.09063011407852 265.30268419161439 2.9691376388072959
leaf_count=1415 5712 20
internal_value=0 0.0866871
internal_weight=0 236.06
internal_count=7147 1435
is_linear=0
shrinkage=0.1


Tree=55
num_leaves=2
num_cat=0
split_feature=315
split_gain=336.391
threshold=1.9680000000000002
decision_type=2
left_child=-1
right_child=-2
leaf_value=-0.077750458390104901 0.087670064321397567
leaf_weight=262.71331579238176 230.86859615147114
leaf_count=5749 1398
internal_value=0
internal_weight=0
internal_count=7147
is_linear=0
shrinkage=0.1


Tree=56
num_leaves=2
num_cat=0
split_feature=280
split_gain=404.343
threshold=6.5000000000000009
decision_type=2
left_child=-1
right_child=-2
leaf_value=0.082132288009663879 -0.079624353077735174
leaf_weight=307.11674369126558 310.84470186382532
leaf_count=2903 4244
internal_value=0
internal_weight=0
internal_count=7147
is_linear=0
shrinkage=0.1


Tree=57
num_leaves=3
num_cat=0
split_feature=364 51
split_gain=289.643 0.141407
threshold=0.21343028798277416 0.00070167348912120013
decision_type=2 2
left_child=-1 -2
right_child=1 -3
leaf_value=-0.077405195586605621 0.05541799346225499 0.085668760159483548
leaf_weight=230.91691713035107 2.2681865878403178 205.16714818775654
leaf_count=5719 20 1408
internal_value=0 0.0853648
internal_weight=0 207.435
internal_count=7147 1428
is_linear=0
shrinkage=0.1


Tree=58
num_leaves=4
num_cat=0
split_feature=364 282 364
split_gain=288.634 0.790044 0.290727
threshold=0.097439235452135356 198.50000000000003 0.10401706626490186
decision_type=2 2 2
left_child=1 -1 -2
right_child=2 -3 -4
leaf_value=0.023406639979472222 -0.032020635176946484 0.085685149525807858 -0.077431351642387694
leaf_weight=2.1475792527198783 1.6108214780688275 206.15939964354038 230.04624286293983
leaf_count=21 28 1414 5684
internal_value=0 0.0850546 -0.0771295
internal_weight=0 208.307 231.657
internal_count=7147 1435 5712
is_linear=0
shrinkage=0.1


Tree=59
num_leaves=2
num_cat=0
split_feature=315
split_gain=287.108
threshold=1.9680000000000002
decision_type=2
left_child=-1
right_child=-2
leaf_value=-0.077361619428894746 0.085715740526817769
leaf_weight=228.55784396454692 204.4216506332159
leaf_count=5749 1398
internal_value=0
internal_weight=0
internal_count=7147
is_linear=0
shrinkage=0.1


Tree=60
num_leaves=2
num_cat=0
split_feature=328
split_gain=345.62
threshold=106.00000000000001
decision_type=2
left_child=-1
right_child=-2
leaf_value=0.081075367012656219 -0.078956559163437565
leaf_weight=268.72502562403679 270.89986212924123
leaf_count=2903 4244
internal_value=0
internal_weight=0
internal_count=7147
is_linear=0
shrinkage=0.1


Tree=61
num_leaves=3
num_cat=0
split_feature=228 74
split_gain=247.561 0.125344
threshold=0.053895406747086358 0.0019978827773866003
decision_type=2 2
left_child=-1 -2
right_child=1 -3
leaf_value=-0.077063074024988631 0.053411909437914275 0.084045886656164456
leaf_weight=200.64150109142065 2.0067089125514022 180.93247540295124
leaf_count=5719 20 1408
internal_value=0 0.0837392
internal_weight=0 182.939
internal_count=7147 1428
is_linear=0
shrinkage=0.1


Tree=62
num_leaves=3
num_cat=0
split_feature=363 267
split_gain=246.619 1.39565
threshold=0.098365894786880473 0.0038448354885285505
decision_type=2 2
left_child=1 -1
right_child=-2 -3
leaf_value=0.08408053354451428 -0.077064148634138241 0.0072561450953284104
leaf_weight=182.11861269176006 200.58682513982058 2.4158531427383414
leaf_count=1415 5712 20
internal_value=0 0.0830793
internal_weight=0 184.534
internal_count=7147 1435
is_linear=0
shrinkage=0.1


Tree=63
num_leaves=2
num_cat=0
split_feature=315
split_gain=245.453
threshold=1.9680000000000002
decision_type=2
left_child=-1
right_child=-2
leaf_value=-0.07702528213206529 0.084089466848236483
leaf_weight=198.56672809831798 180.34061543643475
leaf_count=5749 1398
internal_value=0
internal_weight=0
internal_count=7147
is_linear=0
shrinkage=0.1


Tree=64
num_leaves=2
num_cat=0
split_feature=328
split_gain=295.79
threshold=106.00000000000001
decision_type=2
left_child=-1
right_child=-2
leaf_value=0.080185335196764018 -0.078385013215563071
leaf_weight=234.65211662650108 235.69343058019876
leaf_count=2903 4244
internal_value=0
internal_weight=0
internal_count=7147
is_linear=0
shrinkage=0.1


Tree=65
num_leaves=3
num_cat=0
split_feature=236 7
split_gain=211.825 0.0952338
threshold=0.030916724609508252 -0.20254999999999998
decision_type=2 2
left_child=-1 -2
right_child=1 -3
leaf_value=-0.076766816511488381 0.053792633732675114 0.082676050002419427
leaf_weight=174.11689811572433 1.8786885440349568 158.9028724655509
leaf_count=5719 20 1408
internal_value=0 0.0823722
internal_weight=0 160.782
internal_count=7147 1428
is_linear=0
shrinkage=0.1


Tree=66
num_leaves=4
num_cat=0
split_feature=364 371 364
split_gain=210.985 0.65268 0.261809
threshold=0.097439235452135356 2.0822825407920473 0.10401706626490186
decision_type=2 2 2
left_child=1 -1 -2
right_child=2 -3 -4
leaf_value=0.019227773961841159 -0.028890237739611357 0.082691691210651799 -0.076790303713894018
leaf_weight=1.7076679170131672 1.3069610521197308 159.85045275092125 173.46355391293764
leaf_count=20 28 1415 5684
internal_value=0 0.0820332 -0.0764488
internal_weight=0 161.558 174.771
internal_count=7147 1435 5712
is_linear=0
shrinkage=0.1


Tree=67
num_leaves=2
num_cat=0
split_feature=315
split_gain=209.999
threshold=1.9680000000000002
decision_type=2
left_child=-1
right_child=-2
leaf_value=-0.07673360738382308 0.082717447874508604
leaf_weight=172.29303633607924 158.47059328854084
leaf_count=5749 1398
internal_value=0
internal_weight=0
internal_count=7147
is_linear=0
shrinkage=0.1


Tree=68
num_leaves=2
num_cat=0
split_feature=280
split_gain=253.299
threshold=6.5000000000000009
decision_type=2
left_child=-1
right_child=-2
leaf_value=0.079423098818868262 -0.077895912141430268
leaf_weight=204.41243976354599 204.77145426347852
leaf_count=2903 4244
internal_value=0
internal_weight=0
internal_count=7147
is_linear=0
shrinkage=0.1


Tree=69
num_leaves=3
num_cat=0
split_feature=195 7
split_gain=181.437 0.0747108
threshold=0.25608932385887767 -0.20254999999999998
decision_type=2 2
left_child=-1 -2
right_child=1 -3
leaf_value=-0.076510065383730175 0.053252567120232977 0.081525713447660894
leaf_weight=150.95067479088902 1.681901317089795 139.20466396957636
leaf_count=5719 20 1408
internal_value=0 0.0812262
internal_weight=0 140.887
internal_count=7147 1428
is_linear=0
shrinkage=0.1


Tree=70
num_leaves=3
num_cat=0
split_feature=373 306
split_gain=180.688 1.16603
threshold=0.09836553693809251 -21.828176601331965
decision_type=2 2
left_child=1 -1
right_child=-2 -3
leaf_value=0.081569252482476373 -0.076511034213402912 0.0029987959841200583
leaf_weight=140.35532329231501 150.91321771591902 1.9224557057023037
leaf_count=1415 5712 20
internal_value=0 0.0805105
internal_weight=0 142.278
internal_count=7147 1435
is_linear=0
shrinkage=0.1


Tree=71
num_leaves=2
num_cat=0
split_feature=315
split_gain=179.924
threshold=1.9680000000000002
decision_type=2
left_child=-1
right_child=-2
leaf_value=-0.076480826765499485 0.081568398413348453
leaf_weight=149.34454177692533 138.94466988742352
leaf_count=5749 1398
internal_value=0
internal_weight=0
internal_count=7147
is_linear=0
shrinkage=0.1


Tree=72
num_leaves=2
num_cat=0
split_feature=280
split_gain=217.116
threshold=6.5000000000000009
decision_type=2
left_child=-1
right_child=-2
leaf_value=0.078778155680548592 -0.077475405351181942
leaf_weight=177.82216764986515 177.68444420769811
leaf_count=2903 4244
internal_value=0
internal_weight=0
internal_count=7147
is_linear=0
shrinkage=0.1


Tree=73
num_leaves=3
num_cat=0
split_feature=244 371
split_gain=155.519 0.066698
threshold=0.019495086841187503 2.1189238111772792
decision_type=2 2
left_child=-1 -2
right_child=1 -3
leaf_value=-0.076286400206357227 0.051350184036639469 0.080555363104846067
leaf_weight=130.74118429608643 1.4560716859996308 121.69326136261225
leaf_count=5719 20 1408
internal_value=0 0.080252
internal_weight=0 123.149
internal_count=7147 1428
is_linear=0
shrinkage=0.1


Tree=74
num_leaves=4
num_cat=0
split_feature=364 43 364
split_gain=154.793 0.616306 0.233204
threshold=0.097439235452135356 0.82549076947898847 0.10401706626490186
decision_type=2 2 2
left_child=1 -1 -2
right_child=2 -3 -4
leaf_value=0.080577780630477436 -0.025969594910399543 0.0091166051259586826 -0.076307132627568441
leaf_weight=122.58975331485271 1.0578503347933281 1.2462780326604832 130.2426140177995
leaf_count=1415 28 20 5684
internal_value=0 0.0798665 -0.0759216
internal_weight=0 123.836 131.3
internal_count=7147 1435 5712
is_linear=0
shrinkage=0.1


Tree=75
num_leaves=2
num_cat=0
split_feature=315
split_gain=154.217
threshold=1.9680000000000002
decision_type=2
left_child=-1
right_child=-2
leaf_value=-0.076260703029469967 0.080590063403318854
leaf_weight=129.3297171946615 121.45519551634789
leaf_count=5749 1398
internal_value=0
internal_weight=0
internal_count=7147
is_linear=0
shrinkage=0.1


Tree=76
num_leaves=2
num_cat=0
split_feature=280
split_gain=186.187
threshold=6.5000000000000009
decision_type=2
left_child=-1
right_child=-2
leaf_value=0.078223176615788453 -0.077114082184767507
leaf_weight=154.42306366935372 154.02110916748643
leaf_count=2903 4244
internal_value=0
internal_weight=0
internal_count=7147
is_linear=0
shrinkage=0.1


Tree=77
num_leaves=3
num_cat=0
split_feature=364 86
split_gain=133.389 0.0697492
threshold=0.21343028798277416 0.0049446526368656001
decision_type=2 2
left_child=-1 -2
right_child=1 -3
leaf_value=-0.076091670897337149 0.047439293628399215 0.079734539159751983
leaf_weight=113.15038423240185 1.1883954778313626 106.22941430658102
leaf_count=5719 20 1408
internal_value=0 0.0794217
internal_weight=0 107.418
internal_count=7147 1428
is_linear=0
shrinkage=0.1


Tree=78
num_leaves=3
num_cat=0
split_feature=363 264
split_gain=132.791 0.937593
threshold=0.098365894786880473 0.003946535794563351
decision_type=2 2
left_child=1 -1
right_child=-2 -3
leaf_value=0.0797647250483485 -0.076092791803423446 0.001646213485342801
leaf_weight=107.04634463787079 113.12679712101817 1.5630811527371395
leaf_count=1415 5712 20
internal_value=0 0.078643
internal_weight=0 108.609
internal_count=7147 1435
is_linear=0
shrinkage=0.1


Tree=79
num_leaves=2
num_cat=0
split_feature=315
split_gain=132.32
threshold=1.9680000000000002
decision_type=2
left_child=-1
right_child=-2
leaf_value=-0.076068955309614827 0.079763322320592661
leaf_weight=111.91413089819252 106.00254601985216
leaf_count=5749 1398
internal_value=0
internal_weight=0
internal_count=7147
is_linear=0
shrinkage=0.1


Tree=80
num_leaves=2
num_cat=0
split_feature=280
split_gain=159.799
threshold=6.5000000000000009
decision_type=2
left_child=-1
right_child=-2
leaf_value=0.077752406930309492 -0.076802030574101773
leaf_weight=134.00476894527674 133.38665875419974
leaf_count=2903 4244
internal_value=0
internal_weight=0
internal_count=7147
is_linear=0
shrinkage=0.1


Tree=81
num_leaves=3
num_cat=0
split_feature=363 27
split_gain=114.479 0.047842
threshold=0.2080834826472038 0.099530739464121512
decision_type=2 2
left_child=-1 -2
right_child=1 -3
leaf_value=-0.075920980512803632 0.048611170369917821 0.079025834394765376
leaf_weight=97.862573785707355 1.1017645448446263 92.420804753899574
leaf_count=5719 20 1408
internal_value=0 0.0787198
internal_weight=0 93.5226
internal_count=7147 1428
is_linear=0
shrinkage=0.1


Tree=82
num_leaves=3
num_cat=0
split_feature=363 132
split_gain=113.867 0.89371
threshold=0.098365894786880473 0.0005634966312052501
decision_type=2 2
left_child=1 -1
right_child=-2 -3
leaf_value=0.079057265753775766 -0.075921293893049885 -0.00073135253093152563
leaf_weight=93.221088923513889 97.810813393443823 1.4234181568026532
leaf_count=1415 5712 20
internal_value=0 0.0778578
internal_weight=0 94.6445
internal_count=7147 1435
is_linear=0
shrinkage=0.1


Tree=83
num_leaves=2
num_cat=0
split_feature=315
split_gain=113.535
threshold=1.9680000000000002
decision_type=2
left_child=-1
right_child=-2
leaf_value=-0.075900840604905873 0.079052765217043894
leaf_weight=96.775147427804768 92.273281559348106
leaf_count=5749 1398
internal_value=0
internal_weight=0
internal_count=7147
is_linear=0
shrinkage=0.1


Tree=84
num_leaves=2
num_cat=0
split_feature=280
split_gain=137.204
threshold=6.5000000000000009
decision_type=2
left_child=-1
right_child=-2
leaf_value=0.077347353579019243 -0.076532175999833349
leaf_weight=116.1490995362401 115.42740902863443
leaf_count=2903 4244
internal_value=0
internal_weight=0
internal_count=7147
is_linear=0
shrinkage=0.1


Tree=85
num_leaves=3
num_cat=0
split_feature=226 273
split_gain=98.2962 0.0350787
threshold=0.020652794831373354 0.0019311731235849502
decision_type=2 2
left_child=-1 -2
right_child=1 -3
leaf_value=-0.075770882305104384 0.048830466856033504 0.078426610554685416
leaf_weight=84.591764921322465 1.0114683639258135 80.288572192192078
leaf_count=5719 22 1406
internal_value=0 0.0781188
internal_weight=0 81.3
internal_count=7147 1428
is_linear=0
shrinkage=0.1


Tree=86
num_leaves=4
num_cat=0
split_feature=364 185 364
split_gain=97.7906 0.438528 0.180756
threshold=0.097439235452135356 1.3142284342339179e-07 0.10401706626490186
decision_type=2 2 2
left_child=1 -1 -2
right_child=2 -3 -4
leaf_value=0.078440624089733041 -0.022505665697466429 0.0056585168326105948 -0.075790201213603761
leaf_weight=80.986918095499277 0.74474383145570655 0.85270962864160438 84.287135516293347
leaf_count=1415 28 20 5684
internal_value=0 0.0776901 -0.0753505
internal_weight=0 81.8396 85.0319
internal_count=7147 1435 5712
is_linear=0
shrinkage=0.1


Tree=87
num_leaves=2
num_cat=0
split_feature=315
split_gain=97.4759
threshold=1.9680000000000002
decision_type=2
left_child=-1
right_child=-2
leaf_value=-0.075752907617838317 0.078446353246101316
leaf_weight=83.636859242804348 80.215243205428123
leaf_count=5749 1398
internal_value=0
internal_weight=0
internal_count=7147
is_linear=0
shrinkage=0.1


Tree=88
num_leaves=2
num_cat=0
split_feature=280
split_gain=117.837
threshold=6.5000000000000009
decision_type=2
left_child=-1
right_child=-2
leaf_value=0.076995460561555706 -0.076298318084487671
leaf_weight=100.56152625381947 99.822888994589448
leaf_count=2903 4244
internal_value=0
internal_weight=0
internal_count=7147
is_linear=0
shrinkage=0.1


Tree=89
num_leaves=3
num_cat=0
split_feature=228 233
split_gain=84.4179 0.0439368
threshold=0.053895406747086358 0.0013709600942413502
decision_type=2 2
left_child=-1 -2
right_child=1 -3
leaf_value=-0.075637931802340005 0.043439145132440155 0.077908960874414915
leaf_weight=73.079467208124697 0.7868170402944078 69.802670024335384
leaf_count=5719 20 1408
internal_value=0 0.0775867
internal_weight=0 70.5895
internal_count=7147 1428
is_linear=0
shrinkage=0.1


Tree=90
num_leaves=3
num_cat=0
split_feature=363 214
split_gain=83.9378 0.805318
threshold=0.098365894786880473 0.013750155528594701
decision_type=2 2
left_child=1 -1
right_child=-2 -3
leaf_value=0.077937300090521189 -0.075638587291133402 -0.010155137341023249
leaf_weight=70.498700488358736 73.048147411085665 1.0311959348618973
leaf_count=1416 5712 19
internal_value=0 0.0766549
internal_weight=0 71.5299
internal_count=7147 1435
is_linear=0
shrinkage=0.1


Tree=91
num_leaves=2
num_cat=0
split_feature=315
split_gain=83.7452
threshold=1.9680000000000002
decision_type=2
left_child=-1
right_child=-2
leaf_value=-0.075622007228469221 0.077928054411592437
leaf_weight=72.249319683760405 69.673115681856871
leaf_count=5749 1398
internal_value=0
internal_weight=0
internal_count=7147
is_linear=0
shrinkage=0.1


Tree=92
num_leaves=2
num_cat=0
split_feature=328
split_gain=101.258
threshold=106.00000000000001
decision_type=2
left_child=-1
right_child=-2
leaf_value=0.076694022452897082 -0.076094069734070319
leaf_weight=87.032617330551147 86.275794612243772
leaf_count=2903 4244
internal_value=0
internal_weight=0
internal_count=7147
is_linear=0
shrinkage=0.1


Tree=93
num_leaves=3
num_cat=0
split_feature=195 371
split_gain=72.531 0.0284683
threshold=0.25608932385887767 2.1189238111772792
decision_type=2 2
left_child=-1 -2
right_child=1 -3
leaf_value=-0.075519324019614559 0.045166821481224848 0.077459010123960614
leaf_weight=63.108899963088334 0.75453604385256667 60.463592052459717
leaf_count=5719 20 1408
internal_value=0 0.0771353
internal_weight=0 61.2181
internal_count=7147 1428
is_linear=0
shrinkage=0.1


Tree=94
num_leaves=5
num_cat=0
split_feature=364 158 298 312
split_gain=72.1172 0.361709 0.160755 0.120617
threshold=0.097439235452135356 0.0013616817211977003 0.068727206925940157 -207.9818589584909
decision_type=2 2 2 2
left_child=1 -1 3 -2
right_child=2 -3 -4 -5
leaf_value=0.077474298263109864 -0.056403161861179454 0.0031283952771308252 -0.075537760865851192 0.022778913371355819
leaf_weight=60.992864169180393 0.29413105640560389 0.67017587646841903 62.895732832141221 0.29581961780786414
leaf_count=1415 29 20 5672 11
internal_value=0 0.0766727 -0.0750447 -0.0191519
internal_weight=0 61.663 63.4857 0.589951
internal_count=7147 1435 5712 40
is_linear=0
shrinkage=0.1


Tree=95
num_leaves=2
num_cat=0
split_feature=315
split_gain=71.9419
threshold=1.9680000000000002
decision_type=2
left_child=-1
right_child=-2
leaf_value=-0.075504839864665288 0.077478165703505908
leaf_weight=62.383581940084696 60.405857123434544
leaf_count=5749 1398
internal_value=0
internal_weight=0
internal_count=7147
is_linear=0
shrinkage=0.1


Tree=96
num_leaves=2
num_cat=0
split_feature=328
split_gain=87.0189
threshold=106.00000000000001
decision_type=2
left_child=-1
right_child=-2
leaf_value=0.07642934643895434 -0.075915338910315364
leaf_weight=75.245856530964375 74.53250715136528
leaf_count=2903 4244
internal_value=0
internal_weight=0
internal_count=7147
is_linear=0
shrinkage=0.1


Tree=97
num_leaves=3
num_cat=0
split_feature=364 152
split_gain=62.3334 0.0341444
threshold=0.21343028798277416 3.2874608284738013e-05
decision_type=2 2
left_child=-1 -2
right_child=1 -3
leaf_value=-0.075412239341146992 0.040320851992991479 0.077076637899062578
leaf_weight=54.479355515912175 0.59694234654307265 52.445429481565952
leaf_count=5719 20 1408
internal_value=0 0.0767396
internal_weight=0 53.0424
internal_count=7147 1428
is_linear=0
shrinkage=0.1


Tree=98
num_leaves=3
num_cat=0
split_feature=363 280
split_gain=61.9545 0.653807
threshold=0.098365894786880473 13.500000000000002
decision_type=2 2
left_child=1 -1
right_child=-2 -3
leaf_value=-0.012179595623204411 -0.075412869484709585 0.077100949549792866
leaf_weight=0.80731010809540649 54.460813023149967 53.001484073698521
leaf_count=19 5712 1416
internal_value=0 0.0757413
internal_weight=0 53.8088
internal_count=7147 1435
is_linear=0
shrinkage=0.1


Tree=99
num_leaves=2
num_cat=0
split_feature=315
split_gain=61.8445
threshold=1.9680000000000002
decision_type=2
left_child=-1
right_child=-2
leaf_value=-0.075399145202502182 0.077091433728151137
leaf_weight=53.847426576539874 52.357136096805334
leaf_count=5749 1398
internal_value=0
internal_weight=0
internal_count=7147
is_linear=0
shrinkage=0.1


Tree=100
num_leaves=2
num_cat=0
split_feature=280
split_gain=74.8188
threshold=6.5000000000000009
decision_type=2
left_child=-1
right_child=-2
leaf_value=0.076200859688908662 -0.075757438816597161
leaf_weight=65.047485640272498 64.361140719614923
leaf_count=2903 4244
internal_value=0
internal_weight=0
internal_count=7147
is_linear=0
shrinkage=0.1


Tree=101
num_leaves=3
num_cat=0
split_feature=236 340
split_gain=53.6 0.0145513
threshold=0.030916724609508252 0.68111716478586215
decision_type=2 2
left_child=-1 -2
right_child=1 -3
leaf_value=-0.075314510472972038 0.043790416812530736 0.076739871215671759
leaf_weight=47.023064985871315 0.58082413766533036 45.333227314054966
leaf_count=5719 22 1406
internal_value=0 0.0764191
internal_weight=0 45.9141
internal_count=7147 1428
is_linear=0
shrinkage=0.1


Tree=102
num_leaves=5
num_cat=0
split_feature=374 186 306 312
split_gain=53.2517 0.299217 0.149112 0.102676
threshold=0.097438444672773267 9.490456770754415e-08 -241.16482807096514 102.85110441967811
decision_type=2 2 2 2
left_child=1 -1 -2 -4
right_child=2 -3 3 -5
leaf_value=0.076750029458320948 0.033793777180832839 0.00054525111569108265 -0.075330282417951311 0.00027141823126135257
leaf_weight=45.762214623391628 0.073653787374495461 0.52256152033805747 47.071549771819264 0.17960790358483691
leaf_count=1415 1 20 5700 11
internal_value=0 0.0758927 -0.0748027 -0.0750429
internal_weight=0 46.2848 47.3248 47.2512
internal_count=7147 1435 5712 5711
is_linear=0
shrinkage=0.1


Tree=103
num_leaves=2
num_cat=0
split_feature=315
split_gain=53.156
threshold=1.9680000000000002
decision_type=2
left_child=-1
right_child=-2
leaf_value=-0.075302329434655535 0.076752240467327537
leaf_weight=46.465012553147972 45.312404807657003
leaf_count=5749 1398
internal_value=0
internal_weight=0
internal_count=7147
is_linear=0
shrinkage=0.1


Tree=104
num_leaves=2
num_cat=0
split_feature=280
split_gain=64.3244
threshold=6.5000000000000009
decision_type=2
left_child=-1
right_child=-2
leaf_value=0.075997550144792411 -0.075617194773055979
leaf_weight=56.174403784796596 55.560557739809155
leaf_count=2903 4244
internal_value=0
internal_weight=0
internal_count=7147
is_linear=0
shrinkage=0.1


Tree=105
num_leaves=3
num_cat=0
split_feature=363 27
split_gain=46.085 0.015286
threshold=0.2080834826472038 0.099530739464121512
decision_type=2 2
left_child=-1 -2
right_child=1 -3
leaf_value=-0.075223616739492544 0.040973489868707379 0.076443627726063446
leaf_weight=40.570621339604259 0.48947784118354221 39.239339163526893
leaf_count=5719 20 1408
internal_value=0 0.0761106
internal_weight=0 39.7288
internal_count=7147 1428
is_linear=0
shrinkage=0.1


Tree=106
num_leaves=3
num_cat=0
split_feature=363 232
split_gain=45.772 0.55435
threshold=0.098365894786880473 0.024550387500752953
decision_type=2 2
left_child=1 -1
right_child=-2 -3
leaf_value=0.076467405286818904 -0.075224226282259499 -0.017755850002046724
leaf_weight=39.749201940372586 40.552699724212289 0.59972937405109306
leaf_count=1417 5712 18
internal_value=0 0.0750265
internal_weight=0 40.3489
internal_count=7147 1435
is_linear=0
shrinkage=0.1


Tree=107
num_leaves=2
num_cat=0
split_feature=315
split_gain=45.7159
threshold=1.9680000000000002
decision_type=2
left_child=-1
right_child=-2
leaf_value=-0.075212475455786201 0.076457266656308254
leaf_weight=40.086324469652027 39.216272491961718
leaf_count=5749 1398
internal_value=0
internal_weight=0
internal_count=7147
is_linear=0
shrinkage=0.1


Tree=108
num_leaves=2
num_cat=0
split_feature=280
split_gain=55.323
threshold=6.5000000000000009
decision_type=2
left_child=-1
right_child=-2
leaf_value=0.075819347972506779 -0.075490890272032096
leaf_weight=48.511136520653963 47.948232942260802
leaf_count=2903 4244
internal_value=0
internal_weight=0
internal_count=7147
is_linear=0
shrinkage=0.1


Tree=109
num_leaves=3
num_cat=0
split_feature=244 7
split_gain=39.6319 0.0112057
threshold=0.019495086841187503 -0.20254999999999998
decision_type=2 2
left_child=-1 -2
right_child=1 -3
leaf_value=-0.075137762142351905 0.040126202116157653 0.076183102282117637
leaf_weight=34.997296241112053 0.43566225841641326 33.916748179122806
leaf_count=5719 20 1408
internal_value=0 0.0758436
internal_weight=0 34.3524
internal_count=7147 1428
is_linear=0
shrinkage=0.1


Tree=110
num_leaves=5
num_cat=0
split_feature=374 43 306 228
split_gain=39.3485 0.24138 0.114249 0.112905
threshold=0.097438444672773267 0.82549076947898847 -241.16482807096514 2.0875021970723315e-05
decision_type=2 2 2 2
left_child=1 -1 -2 -4
right_child=2 -3 3 -5
leaf_value=0.076193429532722026 0.028943287621326565 -0.00043920788747837291 0.016193964206447205 -0.075151654238272247
leaf_weight=34.23115487024188 0.058285642415284111 0.41485352441668411 0.10341442376375098 35.079030939377844
leaf_count=1415 1 20 6 5705
internal_value=0 0.0752772 -0.074585 -0.074838
internal_weight=0 34.646 35.2407 35.1824
internal_count=7147 1435 5712 5711
is_linear=0
shrinkage=0.1


Tree=111
num_leaves=2
num_cat=0
split_feature=315
split_gain=39.3135
threshold=1.9680000000000002
decision_type=2
left_child=-1
right_child=-2
leaf_value=-0.075127353127019139 0.07619528842520723
leaf_weight=34.57537456182763 33.905380232259631
leaf_count=5749 1398
internal_value=0
internal_weight=0
internal_count=7147
is_linear=0
shrinkage=0.1


Tree=112
num_leaves=2
num_cat=0
split_feature=280
split_gain=47.5808
threshold=6.5000000000000009
decision_type=2
left_child=-1
right_child=-2
leaf_value=0.075658310382195629 -0.075376092987493745
leaf_weight=41.864845309406519 41.371455332264304
leaf_count=2903 4244
internal_value=0
internal_weight=0
internal_count=7147
is_linear=0
shrinkage=0.1


Tree=113
num_leaves=3
num_cat=0
split_feature=226 35
split_gain=34.092 0.00782707
threshold=0.020652794831373354 0.58648224280235783
decision_type=2 2
left_child=-1 -2
right_child=1 -3
leaf_value=-0.075055257542102655 0.038776226569084513 0.07595238373620794
leaf_weight=30.187719990499318 0.37652208562940614 29.31170242652297
leaf_count=5719 21 1407
internal_value=0 0.0756127
internal_weight=0 29.6882
internal_count=7147 1428
is_linear=0
shrinkage=0.1


Tree=114
num_leaves=3
num_cat=0
split_feature=363 390
split_gain=33.8403 0.501701
threshold=0.098365894786880473 232.50000000000003
decision_type=2 2
left_child=1 -1
right_child=-2 -3
leaf_value=-0.029642783478421326 -0.075055852996573358 0.075972965904540224
leaf_weight=0.4077842459082629 30.171946483664215 29.776698112487793
leaf_count=15 5712 1420
internal_value=0 0.074453
internal_weight=0 30.1845
internal_count=7147 1435
is_linear=0
shrinkage=0.1


Tree=115
num_leaves=2
num_cat=0
split_feature=315
split_gain=33.823
threshold=1.9680000000000002
decision_type=2
left_child=-1
right_child=-2
leaf_value=-0.075045301415885945 0.075962979333947911
leaf_weight=29.818867168854922 29.314865877851844
leaf_count=5749 1398
internal_value=0
internal_weight=0
internal_count=7147
is_linear=0
shrinkage=0.1


Tree=116
num_leaves=2
num_cat=0
split_feature=328
split_gain=40.9363
threshold=106.00000000000001
decision_type=2
left_child=-1
right_child=-2
leaf_value=0.075514071015602272 -0.075269706423062993
leaf_weight=36.136713382788002 35.687133876606822
leaf_count=2903 4244
internal_value=0
internal_weight=0
internal_count=7147
is_linear=0
shrinkage=0.1


Tree=117
num_leaves=3
num_cat=0
split_feature=236 7
split_gain=29.3235 0.00551793
threshold=0.030916724609508252 -0.20254999999999998
decision_type=2 2
left_child=-1 -2
right_child=1 -3
leaf_value=-0.074973944939844675 0.037729649351346609 0.075741387602317023
leaf_weight=26.031518914736807 0.33742922451347368 25.312596630305052
leaf_count=5719 20 1408
internal_value=0 0.0753898
internal_weight=0 25.65
internal_count=7147 1428
is_linear=0
shrinkage=0.1


Tree=118
num_leaves=4
num_cat=0
split_feature=374 122 374
split_gain=29.088 0.206357 0.0900899
threshold=0.097438444672773267 0.0038677256521895006 0.10401385707408951
decision_type=2 2 2
left_child=1 -1 -2
right_child=2 -3 -4
leaf_value=0.075751570686869482 -0.011822218122528155 -0.0047856492339622813 -0.074983356295355671
leaf_weight=25.570979792624716 0.26914829760790127 0.31046709418296714 25.952519665937871
leaf_count=1415 28 20 5684
internal_value=0 0.0747708 -0.0743824
internal_weight=0 25.8814 26.2217
internal_count=7147 1435 5712
is_linear=0
shrinkage=0.1


Tree=119
num_leaves=2
num_cat=0
split_feature=315
split_gain=29.09
threshold=1.9680000000000002
decision_type=2
left_child=-1
right_child=-2
leaf_value=-0.074964262114647337 0.075751517265322504
leaf_weight=25.711666068993509 25.316895812749863
leaf_count=5749 1398
internal_value=0
internal_weight=0
internal_count=7147
is_linear=0
shrinkage=0.1


Tree=120
num_leaves=2
num_cat=0
split_feature=280
split_gain=35.2179
threshold=6.5000000000000009
decision_type=2
left_child=-1
right_child=-2
leaf_value=0.075380254400915239 -0.075169934102247898
leaf_weight=31.171069767326117 30.784104599617422
leaf_count=2903 4244
internal_value=0
internal_weight=0
internal_count=7147
is_linear=0
shrinkage=0.1


Tree=121
num_leaves=3
num_cat=0
split_feature=228 102
split_gain=25.2306 0.0103649
threshold=0.053895406747086358 0.00015588633456805004
decision_type=2 2
left_child=-1 -2
right_child=1 -3
leaf_value=-0.074892266117549192 0.031747798921368135 0.075552365089038717
leaf_weight=22.450305598322302 0.25296000018716114 21.89968666061759
leaf_count=5719 20 1408
internal_value=0 0.0751971
internal_weight=0 22.1526
internal_count=7147 1428
is_linear=0
shrinkage=0.1


Tree=122
num_leaves=3
num_cat=0
split_feature=363 21
split_gain=25.0395 0.499068
threshold=0.098365894786880473 0.00098075642868800019
decision_type=2 2
left_child=1 -1
right_child=-2 -3
leaf_value=0.075571898879956689 -0.074893068925070458 -0.053672227396880462
leaf_weight=22.305781813338402 22.445817837491632 0.23637173697352309
leaf_count=1425 5712 10
internal_value=0 0.0739856
internal_weight=0 22.5422
internal_count=7147 1435
is_linear=0
shrinkage=0.1


Tree=123
num_leaves=2
num_cat=0
split_feature=315
split_gain=25.0381
threshold=1.9680000000000002
decision_type=2
left_child=-1
right_child=-2
leaf_value=-0.074882777959622546 0.075559977837927214
leaf_weight=22.171155116520822 21.881242741830647
leaf_count=5749 1398
internal_value=0
internal_weight=0
internal_count=7147
is_linear=0
shrinkage=0.1


Tree=124
num_leaves=2
num_cat=0
split_feature=280
split_gain=30.3026
threshold=6.5000000000000009
decision_type=2
left_child=-1
right_child=-2
leaf_value=0.075256090610251639 -0.07507373466558219
leaf_weight=26.89279852528125 26.544698207639158
leaf_count=2903 4244
internal_value=0
internal_weight=0
internal_count=7147
is_linear=0
shrinkage=0.1


Tree=125
num_leaves=3
num_cat=0
split_feature=195 371
split_gain=21.7087 0.0018701
threshold=0.25608932385887767 2.1189238111772792
decision_type=2 2
left_child=-1 -2
right_child=1 -3
leaf_value=-0.074808304660400879 0.034193713329738133 0.075371623891377415
leaf_weight=19.356520692352206 0.2474678759463157 18.879369274713099
leaf_count=5719 20 1408
internal_value=0 0.0750195
internal_weight=0 19.1268
internal_count=7147 1428
is_linear=0
shrinkage=0.1


Tree=126
num_leaves=3
num_cat=0
split_feature=373 21
split_gain=21.5303 0.435544
threshold=0.09836553693809251 0.00098075642868800019
decision_type=2 2
left_child=1 -1
right_child=-2 -3
leaf_value=0.07539184413838923 -0.074808698188177356 -0.051533838944395075
leaf_weight=19.251939462497834 19.349721470149234 0.20881617441773315
leaf_count=1425 5712 10
internal_value=0 0.0737734
internal_weight=0 19.4608
internal_count=7147 1435
is_linear=0
shrinkage=0.1


Tree=127
num_leaves=2
num_cat=0
split_feature=315
split_gain=21.5369
threshold=1.9680000000000002
decision_type=2
left_child=-1
right_child=-2
leaf_value=-0.074798614281877326 0.07537961490298678
leaf_weight=19.112907310016453 18.885370827279985
leaf_count=5749 1398
internal_value=0
internal_weight=0
internal_count=7147
is_linear=0
shrinkage=0.1


Tree=128
num_leaves=2
num_cat=0
split_feature=280
split_gain=26.0739
threshold=6.5000000000000009
decision_type=2
left_child=-1
right_child=-2
leaf_value=0.075137755135334938 -0.074979464445154562
leaf_weight=23.195333950221539 22.887962876353413
leaf_count=2903 4244
internal_value=0
internal_weight=0
internal_count=7147
is_linear=0
shrinkage=0.1


Tree=129
num_leaves=3
num_cat=0
split_feature=364 172
split_gain=18.6777 0.00638824
threshold=0.21343028798277416 4.2120962725857427e-06
decision_type=2 2
left_child=-1 -2
right_child=1 -3
leaf_value=-0.07472013227836867 0.028566319193745533 0.075204117163550674
leaf_weight=16.68784695584327 0.19039424974471586 16.322461067698896
leaf_count=5719 20 1408
internal_value=0 0.0748416
internal_weight=0 16.5129
internal_count=7147 1428
is_linear=0
shrinkage=0.1


Tree=130
num_leaves=3
num_cat=0
split_feature=363 21
split_gain=18.5137 0.380736
threshold=0.098365894786880473 0.00098075642868800019
decision_type=2 2
left_child=1 -1
right_child=-2 -3
leaf_value=0.075221374578484379 -0.07472032151503763 -0.049356172790657064
leaf_weight=16.612879391759638 16.680595188168809 0.18476482480764289
leaf_count=1425 5712 10
internal_value=0 0.0735671
internal_weight=0 16.7976
internal_count=7147 1435
is_linear=0
shrinkage=0.1


Tree=131
num_leaves=2
num_cat=0
split_feature=315
split_gain=18.5292
threshold=1.9680000000000002
decision_type=2
left_child=-1
right_child=-2
leaf_value=-0.074710229959116997 0.075208980444061213
leaf_weight=16.476423823507503 16.300875978544354
leaf_count=5749 1398
internal_value=0
internal_weight=0
internal_count=7147
is_linear=0
shrinkage=0.1


Tree=132
num_leaves=2
num_cat=0
split_feature=328
split_gain=22.4396
threshold=106.00000000000001
decision_type=2
left_child=-1
right_child=-2
leaf_value=0.075023052193466888 -0.074884993324315099
leaf_weight=20.009036074858159 19.734390500001609
leaf_count=2903 4244
internal_value=0
internal_weight=0
internal_count=7147
is_linear=0
shrinkage=0.1


Tree=133
num_leaves=2
num_cat=0
split_feature=244
split_gain=16.0702
threshold=0.019495086841187503
decision_type=2
left_child=-1
right_child=-2
leaf_value=-0.074625967197737508 0.074666423358761808
leaf_weight=14.386955279856922 14.254285224713383
leaf_count=5719 1428
internal_value=0
internal_weight=0
internal_count=7147
is_linear=0
shrinkage=0.1


Tree=134
num_leaves=3
num_cat=0
split_feature=363 21
split_gain=15.9199 0.333404
threshold=0.098365894786880473 0.00098075642868800019
decision_type=2 2
left_child=1 -1
right_child=-2 -3
leaf_value=0.075056621197047854 -0.074626019024230481 -0.047151854689984618
leaf_weight=14.333549397066236 14.379814203828571 0.16376342624425966
leaf_count=1425 5712 10
internal_value=0 0.0733626
internal_weight=0 14.4973
internal_count=7147 1435
is_linear=0
shrinkage=0.1


Tree=135
num_leaves=2
num_cat=0
split_feature=315
split_gain=15.9402
threshold=1.9680000000000002
decision_type=2
left_child=-1
right_child=-2
leaf_value=-0.074615694720772702 0.07504339177585391
leaf_weight=14.203798655653374 14.064325159415601
leaf_count=5749 1398
internal_value=0
internal_weight=0
internal_count=7147
is_linear=0
shrinkage=0.1


Tree=136
num_leaves=2
num_cat=0
split_feature=328
split_gain=19.3115
threshold=106.00000000000001
decision_type=2
left_child=-1
right_child=-2
leaf_value=0.074909027220997931 -0.074788259649158847
leaf_weight=17.257163477130234 17.015118007082492
leaf_count=2903 4244
internal_value=0
internal_weight=0
internal_count=7147
is_linear=0
shrinkage=0.1


Tree=137
num_leaves=3
num_cat=0
split_feature=226 27
split_gain=13.8284 0.000430547
threshold=0.020652794831373354 0.099530739464121512
decision_type=2 2
left_child=-1 -2
right_child=1 -3
leaf_value=-0.074524061126676977 0.028376640693484018 0.074875405619950194
leaf_weight=12.405883628875019 0.1621110001578917 12.140506158582864
leaf_count=5719 20 1408
internal_value=0 0.0744964
internal_weight=0 12.3026
internal_count=7147 1428
is_linear=0
shrinkage=0.1


Tree=138
num_leaves=5
num_cat=0
split_feature=364 87 298 371
split_gain=13.6953 0.107067 0.0502664 0.0235146
threshold=0.097439235452135356 0.015098200868149052 0.068727206925940157 2.1469667722327102
decision_type=2 2 2 2
left_child=1 -1 3 -2
right_child=2 -3 -4 -5
leaf_value=0.074882741031973107 -0.031202810497295792 -0.0055004551173155752 -0.074529136960649819 0.022221827186781357
leaf_weight=12.242347902618349 0.071051471401004984 0.15456777997315008 12.376283434452487 0.063786738086491823
leaf_count=1415 34 20 5672 6
internal_value=0 0.0738445 -0.0738669 -0.007229
internal_weight=0 12.3969 12.5111 0.134838
internal_count=7147 1435 5712 40
is_linear=0
shrinkage=0.1


Tree=139
num_leaves=2
num_cat=0
split_feature=315
split_gain=13.7163
threshold=1.9680000000000002
decision_type=2
left_child=-1
right_child=-2
leaf_value=-0.074512999282211403 0.07488015607934341
leaf_weight=12.245035458239728 12.138508738018571
leaf_count=5749 1398
internal_value=0
internal_weight=0
internal_count=7147
is_linear=0
shrinkage=0.1


Tree=140
num_leaves=2
num_cat=0
split_feature=280
split_gain=16.6243
threshold=6.5000000000000009
decision_type=2
left_child=-1
right_child=-2
leaf_value=0.074793236085539935 -0.074687473522661946
leaf_weight=14.886258298531176 14.675337579799814
leaf_count=2903 4244
internal_value=0
internal_weight=0
internal_count=7147
is_linear=0
shrinkage=0.1


Tree=141
num_leaves=2
num_cat=0
split_feature=373
split_gain=11.9018
threshold=0.20807110851437208
decision_type=2
left_child=-1
right_child=-2
leaf_value=-0.074412213974308986 0.074329914758704901
leaf_weight=10.699506511562506 10.61886652978137
leaf_count=5719 1428
internal_value=0
internal_weight=0
internal_count=7147
is_linear=0
shrinkage=0.1


Tree=142
num_leaves=3
num_cat=0
split_feature=373 304
split_gain=11.7869 0.249239
threshold=0.09836553693809251 -32.335182827920711
decision_type=2 2
left_child=1 -1
right_child=-2 -3
leaf_value=0.074730972988826888 -0.074412384047202421 -0.042165820251864265
leaf_weight=10.675386084709315 10.697067554225212 0.12566301040351646
leaf_count=1425 5712 10
internal_value=0 0.0729966
internal_weight=0 10.801
internal_count=7147 1435
is_linear=0
shrinkage=0.1


Tree=143
num_leaves=2
num_cat=0
split_feature=362
split_gain=11.7964
threshold=0.43425340986298916
decision_type=2
left_child=-1
right_child=-2
leaf_value=-0.074399953044443495 0.074658854513475675
leaf_weight=10.555643149302343 10.481728894636033
leaf_count=5747 1400
internal_value=0
internal_weight=0
internal_count=7147
is_linear=0
shrinkage=0.1


Tree=144
num_leaves=2
num_cat=0
split_feature=328
split_gain=14.3094
threshold=106.00000000000001
decision_type=2
left_child=-1
right_child=-2
leaf_value=0.07467351142528543 -0.074579916986768399
leaf_weight=12.840398552361878 12.655017382465301
leaf_count=2903 4244
internal_value=0
internal_weight=0
internal_count=7147
is_linear=0
shrinkage=0.1


Tree=145
num_leaves=3
num_cat=0
split_feature=236 288
split_gain=10.2435 0.00304611
threshold=0.030916724609508252 0.33533750000000001
decision_type=2 2
left_child=-1 -2
right_child=1 -3
leaf_value=-0.074288036899443868 0.074542997178065049 0.021149115083965671
leaf_weight=9.2286499398760515 9.059001332148906 0.10606990638189095
leaf_count=5719 1409 19
internal_value=0 0.07416
internal_weight=0 9.16507
internal_count=7147 1428
is_linear=0
shrinkage=0.1


Tree=146
num_leaves=3
num_cat=0
split_feature=363 304
split_gain=10.1352 0.219589
threshold=0.098365894786880473 -32.335182827920711
decision_type=2 2
left_child=1 -1
right_child=-2 -3
leaf_value=0.074561661498723023 -0.074287721940229964 -0.039972583370540798
leaf_weight=9.209707841742782 9.2238403431838361 0.11206654831767338
leaf_count=1425 5712 10
internal_value=0 0.0727751
internal_weight=0 9.32177
internal_count=7147 1435
is_linear=0
shrinkage=0.1


Tree=147
num_leaves=2
num_cat=0
split_feature=315
split_gain=10.1596
threshold=1.9680000000000002
decision_type=2
left_child=-1
right_child=-2
leaf_value=-0.074274649116460686 0.074545096487337495
leaf_weight=9.105786428786816 9.0435329093597812
leaf_count=5749 1398
internal_value=0
internal_weight=0
internal_count=7147
is_linear=0
shrinkage=0.1


Tree=148
num_leaves=2
num_cat=0
split_feature=280
split_gain=12.3179
threshold=6.5000000000000009
decision_type=2
left_child=-1
right_child=-2
leaf_value=0.074547147330395636 -0.074463626284295897
leaf_weight=11.077060005394744 10.914306960767133
leaf_count=2903 4244
internal_value=0
internal_weight=0
internal_count=7147
is_linear=0
shrinkage=0.1


Tree=149
num_leaves=3
num_cat=0
split_feature=195 49
split_gain=8.816 0.00186446
threshold=0.25608932385887767 1.6467662122961826
decision_type=2 2
left_child=-1 -2
right_child=1 -3
leaf_value=-0.074148717411840884 0.074364533116066209 0.019813947026574512
leaf_weight=7.9598742451053113 7.8187080267816782 0.09249665937386442
leaf_count=5719 1408 20
internal_value=0 0.073982
internal_weight=0 7.9112
internal_count=7147 1428
is_linear=0
shrinkage=0.1


Tree=150
num_leaves=5
num_cat=0
split_feature=364 187 301 371
split_gain=8.71925 0.0747412 0.0339042 0.0121642
threshold=0.097439235452135356 5.7697271216625805e-08 0.068727206925940157 2.1469667722327102
decision_type=2 2 2 2
left_child=1 -1 3 -2
right_child=2 -3 -4 -5
leaf_value=0.07437042147920267 -0.024188076535546811 -0.0059177192117328761 -0.074151310494475292 0.017059454016137426
leaf_weight=7.8641894413158324 0.047529018484054109 0.10326572880148877 7.9419909626012668 0.043762312969192863
leaf_count=1415 34 20 5672 6
internal_value=0 0.0732694 -0.0734562 -0.0058337
internal_weight=0 7.96746 8.03328 0.0912913
internal_count=7147 1435 5712 40
is_linear=0
shrinkage=0.1


Tree=151
num_leaves=2
num_cat=0
split_feature=315
split_gain=8.74224
threshold=1.9680000000000002
decision_type=2
left_child=-1
right_child=-2
leaf_value=-0.074133879043440196 0.074365552460211023
leaf_weight=7.8530530000571162 7.804533027112484
leaf_count=5749 1398
internal_value=0
internal_weight=0
internal_count=7147
is_linear=0
shrinkage=0.1


Tree=152
num_leaves=2
num_cat=0
split_feature=280
split_gain=10.6052
threshold=6.5000000000000009
decision_type=2
left_child=-1
right_child=-2
leaf_value=0.074411142675555958 -0.074336478215641197
leaf_weight=9.5566525226458925 9.4169477026443911
leaf_count=2903 4244
internal_value=0
internal_weight=0
internal_count=7147
is_linear=0
shrinkage=0.1


Tree=153
num_leaves=3
num_cat=0
split_feature=364 305
split_gain=7.58763 0.00154379
threshold=0.21343028798277416 166.13267855077217
decision_type=2 2
left_child=-1 -2
right_child=1 -3
leaf_value=-0.073991932479734873 0.07417331219446506 0.018095327784449094
leaf_weight=6.8679146617650986 6.7499186508357525 0.080189107451587804
leaf_count=5719 1408 20
internal_value=0 0.0737855
internal_weight=0 6.83011
internal_count=7147 1428
is_linear=0
shrinkage=0.1


Tree=154
num_leaves=3
num_cat=0
split_feature=363 7
split_gain=7.5045 0.16502
threshold=0.098365894786880473 -0.043044999999999993
decision_type=2 2
left_child=1 -1
right_child=-2 -3
leaf_value=0.074194942088546503 -0.073992125988512944 -0.035015874848844233
leaf_weight=6.8612069906666875 6.8678987694438547 0.086507759988307842
leaf_count=1425 5712 10
internal_value=0 0.0723576
internal_weight=0 6.94771
internal_count=7147 1435
is_linear=0
shrinkage=0.1


Tree=155
num_leaves=2
num_cat=0
split_feature=315
split_gain=7.52561
threshold=1.9680000000000002
decision_type=2
left_child=-1
right_child=-2
leaf_value=-0.0739753887695042 0.074174343081464644
leaf_weight=6.7753593180095777 6.7398711410351098
leaf_count=5749 1398
internal_value=0
internal_weight=0
internal_count=7147
is_linear=0
shrinkage=0.1


Tree=156
num_leaves=2
num_cat=0
split_feature=280
split_gain=9.13152
threshold=6.5000000000000009
decision_type=2
left_child=-1
right_child=-2
leaf_value=0.07426370575398912 -0.074195332313921392
leaf_weight=8.2488611962180602 8.1246349274879304
leaf_count=2903 4244
internal_value=0
internal_weight=0
internal_count=7147
is_linear=0
shrinkage=0.1


Tree=157
num_leaves=3
num_cat=0
split_feature=228 119
split_gain=6.53051 0.000909878
threshold=0.053895406747086358 0.00029175097929820006
decision_type=2 2
left_child=-1 -2
right_child=1 -3
leaf_value=-0.073814228410974445 0.01655255909331103 0.07396577634122721
leaf_weight=5.9262613625032827 0.069002560107037314 5.8285311874933541
leaf_count=5719 20 1408
internal_value=0 0.0735812
internal_weight=0 5.89753
internal_count=7147 1428
is_linear=0
shrinkage=0.1


Tree=158
num_leaves=3
num_cat=0
split_feature=363 7
split_gain=6.45208 0.146331
threshold=0.098365894786880473 -0.043044999999999993
decision_type=2 2
left_child=1 -1
right_child=-2 -3
leaf_value=0.073988688124183188 -0.073814253652449105 -0.032978548272472284
leaf_weight=5.9212850187905133 5.9255728450953029 0.07766333408653725
leaf_count=1425 5712 10
internal_value=0 0.0720859
internal_weight=0 5.99895
internal_count=7147 1435
is_linear=0
shrinkage=0.1


Tree=159
num_leaves=2
num_cat=0
split_feature=339
split_gain=6.47486
threshold=1.0000000180025095e-35
decision_type=2
left_child=-1
